597 100
taught -0.00186623 -0.0638208 -0.0716775 0.0324656 0.024197 0.0240357 -0.0651012 -0.0705278 0.0727592 -0.0228517 0.0396392 0.0230922 -0.0842474 0.0570908 0.0463636 -0.0479722 -0.0716573 0.0444613 0.0512054 -0.0716531 0.0412049 -0.0601 0.044533 -0.030937 -0.0388232 0.0342534 0.0737694 -0.00146342 0.027611 0.0441822 -0.0411031 -0.0487113 0.0612796 0.0601941 -0.000168516 0.009407 0.00162143 0.0651392 0.0767258 -0.0902091 0.0302962 0.0244728 -0.0644568 0.0729694 -0.0109328 -0.0732785 0.0475823 0.0162123 -0.0860041 -0.00746184 -0.026952 -0.0863834 0.0516293 0.0386105 0.00770823 -0.0271451 -0.0532231 0.0545716 0.0947573 -0.00522802 0.00914105 -0.0212655 0.05402 0.0188245 -0.0744012 0.0208083 0.0853258 0.0201875 0.0146222 0.0173805 -0.0578534 -0.0445114 0.0153649 -0.0150109 0.0590009 0.0595077 0.0397522 -0.0326898 0.0790994 -0.0927327 -0.013666 0.0429798 0.0650234 0.0938375 -0.0306336 -0.0959002 0.0535662 0.0036311 0.0894944 -0.0556629 0.0885571 -0.000137126 -0.0872902 0.00375236 0.00791035 0.0182082 -0.0408893 0.00878105 -0.0154101 -0.084619
org 0.0289943 0.0683009 0.0770749 0.0386278 0.0552563 -0.0347115 -0.0191786 -0.0547953 0.070209 -0.0321956 -0.0920165 0.0471136 -0.0309307 0.0723972 0.0575623 -0.0597838 0.00583966 -0.0768811 0.00388974 0.0734904 -0.0632025 0.0434412 0.0394376 0.0806336 -0.0105865 -0.0689402 -0.0666331 0.0545294 -0.041176 0.0234303 -0.0395658 -0.0522029 -0.0238379 -0.0762566 0.0861106 -0.0341625 -0.011168 -0.00796325 -0.00327629 -0.0561076 -0.0519482 0.0711876 0.0206945 -0.000198776 -0.0819144 0.0626728 0.00500959 -0.0128776 0.0834216 -0.0208687 -0.0126936 -0.0133918 -0.0705329 -0.0515827 -0.061352 0.0636047 -0.0302282 -0.0391555 -0.0282846 0.0823446 -0.0804164 0.059592 -0.0252698 0.0126514 0.0265112 0.0900474 -0.0301147 -0.0923817 -0.0534284 -0.0786839 -0.0243367 0.0371739 -0.0215953 0.0888622 -0.0806276 0.0607398 -0.0401481 -0.0329734 -0.0811647 0.0713531 -0.0451723 0.0824753 -0.035093 -0.00862366 -0.0525224 -0.0873693 -0.000880034 -0.0277478 0.0586073 0.0549358 -0.0866643 0.0771013 -0.00914717 -0.00680223 0.016643 -0.00314981 -0.0915966 -0.0493921 -0.0506006 0.0726962
do -0.0196933 -0.0561816 -0.0169685 0.0276185 -0.0590776 -0.0829251 0.046281 -0.014833 0.0553867 -0.0106436 -0.0471307 0.0309765 -0.0911949 0.0717542 0.0470065 0.0832629 -0.05709 0.00238398 -0.0958242 0.0559357 0.00468393 0.011788 -0.0338444 0.0882649 -0.0453632 0.00761799 -0.0178039 -0.0867918 -0.0740532 -0.0293686 0.0045869 0.104109 0.0733604 0.0677403 -0.0718463 -0.0673779 -0.0274043 0.033433 -0.0691819 0.0723918 -0.0417062 0.0237534 -0.0200782 0.0197033 0.0574318 -0.0621803 -0.0514057 0.0215985 -0.0969807 0.0255778 -0.0651097 0.0700263 0.0171044 0.0758047 -0.0254616 -0.0709901 0.0290478 0.0535283 0.0552456 0.0369492 0.0139642 -0.0963473 0.0374424 -0.0305124 0.0594918 0.0142705 0.0653466 0.0504558 -0.0341882 -0.0438566 -0.0540909 0.113033 -0.094061 -0.0554828 0.0385589 -0.0822822 -0.068997 -0.0503844 -0.0398697 -0.00173968 -0.0623981 -0.0100368 -0.0491363 -0.0756987 -0.00706114 0.00184537 -0.00381864 -0.0010929 -0.0091639 0.00381031 0.0647945 0.0639399 0.0280676 0.0452851 -0.0103646 0.104154 0.0489522 -0.0349372 0.0795715 0.0316794
telescope 0.0286332 -0.0558699 -0.0391353 -0.0494294 0.0933556 0.0169639 -0.0241691 0.0710592 -0.0023824 0.0143298 -0.0254936 0.0420091 0.041157 0.0815613 -0.0442149 0.013537 -0.0893288 0.0864413 0.0814057 0.0446098 0.0480005 0.0461212 0.0798372 0.0752384 -0.0294476 0.0166302 0.0749498 0.0404934 -0.0625708 -0.0771454 -0.0459196 -0.0232712 -0.013028 0.0787562 -0.0913499 0.0408265 0.0663323 -0.000850401 0.0576549 -0.000631514 -0.046549 -0.0898013 -0.0138024 -0.0435487 0.0036827 -0.0150199 -0.0685193 0.0633379 -0.0960563 -0.0709064 0.0073173 -0.000458691 -0.0869106 0.0575673 0.0786853 -0.0325324 0.0804443 0.0218764 -0.00574203 -0.0802731 0.0497319 0.074478 -0.0104829 0.0345478 0.0849561 0.00593458 0.0787149 -0.0321461 0.0235557 -0.0117205 -0.0826166 -0.0682951 0.0801927 0.0753453 0.0515233 0.0196172 -0.0460949 0.0352835 0.0815373 0.0761395 0.0011182 -0.0233366 -0.0562299 -0.0219221 0.0174721 -0.0687643 0.0694933 -0.00122275 -0.046256 0.0145719 0.0889578 -0.0518135 -0.059875 -0.00645566 0.0481825 -0.0808136 -0.0186343 -0.0598485 -0.0432472 -0.0747576
some -0.0530287 -0.058634 -0.0112188 0.0252893 0.0381055 0.0119055 -0.080259 0.0108446 0.0169609 0.0829584 -0.0200149 -0.0315538 -0.0853616 0.0819248 0.0789767 -0.0364908 0.066066 0.0243869 -0.0759983 -0.0880412 0.0901218 0.0719334 0.0417463 -0.0902031 0.0567028 0.066587 -0.00275191 0.0890274 -0.0042236 0.0737038 0.068802 0.078065 0.000109443 0.000870356 0.0434868 -0.0241272 -0.00403237 -0.0443149 -0.0628273 0.0532901 -0.0876113 0.0502284 -0.00284422 -0.0576459 -0.0043185 0.0239452 -0.0295559 -0.0304159 -0.0434513 0.0842902 0.027882 -0.022576 0.0331351 -0.0844839 0.0112829 -0.0675791 0.020538 -0.0604798 -0.0330843 0.06264 0.0921759 -0.00935385 0.0937055 -0.0523616 -0.00198544 0.0848576 0.0467853 -0.0578258 -0.0332086 -0.0460218 -0.0297783 0.0632335 -0.0112802 -0.0324014 0.000664658 -0.0613264 -0.0154379 0.0623678 0.083828 -0.0175052 -0.0262348 0.0359439 0.0821338 -0.00663152 -0.0228233 -0.0580281 -0.0466978 0.000486202 -0.032087 -0.0481004 -0.0342804 -0.0447603 0.0605402 0.0697728 -0.0887665 -0.0780153 0.0640012 -0.0382941 0.0140509 -0.00599158
think 0.0428457 0.00198812 -0.0430754 -0.0550737 -0.0620713 0.0483105 -0.0326332 0.00242488 -0.0427387 -0.083728 0.0697692 0.0188379 -0.0395627 0.00839674 -0.035908 0.0770461 -0.0852343 0.0867201 -0.0468075 0.0336799 -0.077894 0.0556381 0.025773 -0.0970181 -0.0484548 0.00526866 -0.066145 0.0576557 -0.0319526 -0.0604441 -0.046524 0.052959 -0.0376142 -0.0614148 0.00266658 -0.0843017 -0.0450429 0.0115395 0.0844902 -0.0493132 0.0627453 0.073245 -0.0303059 0.0653533 0.0969216 0.0667795 0.027413 -0.0412649 -0.082977 -0.10197 0.0642694 0.0336491 0.0813406 -0.0347952 0.112583 -0.02376 0.0732205 0.038593 -0.0164238 0.0556448 0.0582583 -0.0305772 0.0500613 -0.0942512 -0.0609352 -0.0646663 0.0227124 0.0731191 0.0572544 0.0493574 0.0185118 0.0528293 0.0695618 -0.0480833 -0.098487 -0.0841757 0.0687337 0.0289205 -0.0201001 -0.0230017 0.0360767 0.050982 -0.0482647 -0.0852579 0.0657162 -0.103002 0.0638652 0.0522327 0.0162178 0.061909 0.03995 -0.0698939 -0.0559 -0.0540341 -0.0170366 -0.0784597 0.0716838 -0.0501206 -0.0441865 0.00168378
why 0.0777011 -0.0386812 -0.0693255 0.0120564 -0.00458411 0.0013146 0.00715793 -0.0671196 -0.0075403 0.0218221 -0.0878969 -0.0696837 -0.0226434 0.0607783 0.0106618 -0.0510223 -0.0617735 0.061135 0.00930608 -0.00600606 -0.0765929 -0.0306596 -0.0477692 -0.0458185 -0.00200203 0.0296532 -0.0400008 -0.0176301 -0.0782019 0.0482117 0.0706011 -0.08181 0.0237927 0.00345774 0.0489329 -0.0555341 -0.0274777 0.0393973 -0.0144434 0.0354151 0.0208412 0.0261946 -0.080915 -0.0229578 -0.0468105 0.0665927 -0.00263011 0.0722886 0.0389394 -0.0169591 -0.0500641 -0.00390515 0.0014742 -0.00735935 0.0753789 -0.0519644 -0.0298437 -0.069357 0.0221867 -0.0702476 -0.0350366 -0.0330364 0.0263331 -0.0664004 -0.0415747 0.0505118 -0.03478 -0.00994064 0.029441 -0.0196181 -0.0238951 0.0172445 -0.0369763 0.0574293 0.0503776 -0.0179735 -0.0681739 -0.0283487 0.0213962 0.057434 -0.0452947 -0.0814644 0.0753193 0.0863501 -0.0155718 0.0172592 0.00346763 -0.0876753 0.0227432 -0.00241366 0.0318741 0.0632133 0.0478789 0.0502435 -0.0341565 -0.00224197 0.0253901 -0.00102454 0.0815807 -0.00348496
curiosity 0.0328832 -0.076864 -0.024678 -0.0643132 0.0087493 -0.0517655 -0.073641 -0.00428102 -0.025941 0.0621742 0.0808957 0.0187734 -0.0572157 -0.00314141 0.0763464 -0.0612226 0.052088 0.0477975 0.0208055 -0.00285705 0.0132731 -0.065347 -0.0241406 0.00877732 -0.0816704 0.025091 -0.0467055 -0.0933271 0.050698 0.0929724 0.00180175 -0.041433 0.0858128 -0.0160132 -0.0722969 0.048786 0.0505473 0.059818 0.0544174 -0.0590894 0.0849782 0.00830583 0.00859748 0.0857473 -0.0920114 -0.0540584 0.0727969 0.0387253 0.0878387 0.0783587 0.0501405 -0.0348977 -0.065715 -0.055835 0.00567907 0.0417169 0.0401789 -0.0744162 0.0627878 -0.0823382 0.039576 0.0445112 0.023797 0.0473598 -0.0475386 0.0772735 0.0788289 -0.0565537 -0.0792604 0.0581952 0.0864163 -0.0170899 0.0343239 0.0173747 0.0231603 0.0288895 -0.00351964 0.0574529 0.00376178 -0.0494724 -0.0819165 0.0707931 -0.0705049 -0.0863491 0.0744106 0.072155 0.04439 -0.0653181 0.0260745 0.038858 0.0501244 -0.0613005 -0.0370627 -0.0539373 0.0302327 0.0224378 -0.00502422 -0.00695114 0.0787609 -0.0158663
then -0.031761 0.00796729 -0.0333821 -0.0582351 -0.000889298 -0.0836689 -0.0924507 -0.0587824 0.0783453 0.0472465 0.04834 -0.0130277 -0.0630401 -0.064992 0.0340047 -0.0557499 -0.0878487 -0.0129829 -0.0429397 0.0289114 -0.0217359 0.0827085 -0.0298183 -0.0628059 0.0279998 0.0121142 0.0730658 0.0444123 -0.0606273 0.00852335 0.0185152 0.0177394 -0.0378863 0.0410599 -0.0261482 -0.0453706 -0.014436 0.0809754 -0.0847161 0.0219747 -0.0660144 -0.0323234 0.040424 0.0624275 -0.0427912 0.0321235 -0.0315595 0.0824716 -0.0471642 -0.0757333 -0.0531181 0.0133669 0.00805646 0.0612599 0.0790427 0.0802033 0.0638376 -0.0306653 0.0298074 0.00416832 0.104598 -0.0502136 -0.0581722 0.00725306 -0.063414 -0.0392569 0.0414448 -0.00740967 0.0193768 0.0783468 0.0364663 0.0152076 0.0428412 0.0427261 0.0352333 0.0508144 0.0578793 0.00310735 0.0752213 0.0162964 0.076719 0.0914796 0.0651247 0.0423746 -0.0642044 -0.0748066 0.040136 0.0242488 -0.0599584 0.0215409 0.0871646 -0.0241394 -0.0701695 -0.0769701 -0.0697484 0.0431018 -0.0102772 -0.00465906 -0.00766938 -0.065125
end -0.0416781 -0.0384984 -0.0708476 -0.0655682 -0.0569234 -0.0602253 0.04845 -0.0252783 0.000901196 0.0177254 -0.0200721 0.000618346 0.0927403 0.0789886 0.0621085 0.0576466 0.0521949 -0.0399629 0.0809404 -0.0200276 0.0721602 0.0384694 0.0232084 0.028739 0.0666319 -0.0182152 -0.0177871 -0.0522572 -0.062083 -0.0224005 -0.00510947 -0.0157478 -0.0420288 0.0714537 -0.0362872 0.0772966 -0.0494759 -0.0339442 0.0333075 0.087964 -0.0816489 0.00751265 -0.0539695 -0.0649899 -0.0347301 -0.0272127 0.0430755 0.0634169 -0.0927875 0.0646463 0.0679772 -0.0758661 0.00669299 -0.0812327 -0.0318788 0.0681566 -0.0435525 0.0695875 0.0845616 0.0478042 -0.0708606 0.0328814 0.081034 0.0631851 0.0330265 -0.0885693 0.0280878 -0.0799 0.0694342 0.0109701 0.0757759 0.0722847 0.00993923 0.0626952 0.0414588 0.066889 -0.0195657 0.0319426 0.0402807 -0.0782625 0.0550126 0.00317671 0.0184748 0.0141819 -0.0682103 0.0950894 -0.0836056 0.0408665 0.0373036 -0.0852562 0.0510693 0.048502 -0.0915222 -0.0447008 -0.00530233 -0.0737091 -0.00740045 -0.0297785 -0.0479491 0.0689183
2016 -0.0402133 0.0205382 0.00627048 0.0675304 0.0182141 0.0455418 0.0598496 0.0378792 0.0224567 0.0954259 -0.0107347 -0.0185267 0.0317785 -0.0224078 0.000443374 0.0149188 0.0215862 -0.0127392 0.0620645 0.0497651 -0.0515216 -0.0855855 0.085311 0.0390529 0.0119993 -0.0536892 0.0599018 0.00802627 0.0464651 0.0654378 -0.0206404 -0.0699855 -0.0544318 -0.0341617 -0.0187177 -0.0826403 -0.0783977 -0.0539773 -0.0176691 0.0570375 -0.0329805 0.0487893 0.0484906 -0.0672188 0.043359 0.0497314 -0.032669 -0.0653052 0.0782812 -0.0339182 -0.0540376 0.0857685 -0.0415296 0.0275783 -0.0498015 0.0178308 0.0477021 -0.0211277 0.0159676 -0.072944 -0.031114 -0.077114 0.0821092 0.0375106 -0.0572838 0.0790128 0.0429287 0.0695857 -0.0789855 0.0315405 -0.00306048 0.0658713 -0.0741428 0.0407276 0.0490833 -0.0771261 -0.00037621 -0.0829347 -0.0377292 -0.0236583 -0.0287641 0.0488669 -0.0413861 -0.0282833 -0.00950464 0.0879952 -0.0261949 0.0250578 -0.0126879 0.0125931 0.0570525 -0.00076556 0.08761 0.0452639 0.0615004 0.0699165 0.0588133 -0.0751398 -0.0592907 -0.0940333
question -0.0110556 0.045213 -0.0864135 -0.0310805 -0.00464811 0.0779383 0.0851603 0.081049 0.0535439 0.016701 -0.0418955 -0.0143088 0.000801596 0.046879 -0.0963358 -0.0442515 0.0545076 0.0875576 0.0643864 0.00548589 -0.0333968 -0.0596985 -0.0772694 -0.0542634 0.0722606 -0.00877393 0.0802454 0.072324 -0.0516897 0.0804697 -0.0296497 -0.0175075 0.070182 0.027009 0.0177587 -0.0277083 0.0183344 -0.00800261 -0.00653726 -0.0864929 -0.0187848 0.0285094 -0.0791862 -0.0729091 -0.0287917 0.0710169 0.00809027 0.0648992 0.0842118 0.0501819 0.0238439 0.0921259 0.064019 0.0561754 -0.0158005 -0.00931275 -0.0877555 0.0687087 0.0513617 0.0462244 0.0378519 -0.0927338 0.0337087 -0.00670811 0.0242691 -0.0105523 0.0563092 -0.0683686 0.0178879 -0.0390725 0.0166304 -0.0211301 0.0638088 -0.011782 -0.00255384 0.0407701 0.0496638 -0.0149866 0.0509309 -0.0165832 -0.096314 -0.0232072 0.0566422 0.00921447 0.0201612 0.0570458 0.0466824 0.087764 -0.0424929 0.00157201 -0.053101 0.0596917 0.00311739 0.0234077 -0.0351313 -0.00715514 -0.0255654 -0.0839173 -0.00410873 0.0477014
head 0.0428095 -0.0717512 0.0733788 0.0139575 0.0569362 -0.09142 0.00693026 -0.0114799 -0.00438957 0.0703814 0.0254013 -0.0421412 -0.00202789 0.0328226 0.00250768 0.00173934 -0.0223343 0.0562728 0.0773946 -0.0316775 -0.090778 0.00772035 -0.0843398 0.0693517 -0.0147232 -0.0566748 0.0786078 0.070906 0.0787575 -0.0671172 0.0676714 0.0653113 0.0252007 -0.0661016 -0.00163778 -0.0821503 0.0278564 0.00453747 0.0106981 0.0542954 -0.00850997 0.00444987 -0.0558185 0.0236143 0.0789047 -0.0752106 -0.0724358 -0.0661785 -0.0782324 -0.0126392 0.0947158 -0.0225789 -0.0781713 0.0629982 -0.0367654 0.0464851 -0.0400393 0.000857518 -0.0658055 0.0548609 0.00843319 0.0119978 -0.0457454 0.0950387 -0.0863033 0.0479832 0.025978 0.0597166 -0.0691479 0.0702806 0.0476542 -0.087056 0.0223363 -0.0462641 0.0324082 0.0675542 -0.0472682 0.0530592 -0.0362192 -0.0306983 -0.0246755 -0.0639875 0.0609106 0.0397628 -0.0356914 0.0281836 -0.0465787 -0.0800836 -0.0911754 0.0425572 0.093983 -0.0768215 0.0633493 -0.00581432 -0.000961784 0.0831963 0.036173 0.0750682 0.0703471 -0.0538234
empty 0.0046755 -0.0525342 -0.040789 -0.0208086 0.00457914 -0.00374525 -0.0536129 -0.0315548 0.026913 0.0208326 0.0384153 0.00167192 0.0887217 -0.033963 0.0468407 -0.063715 -0.0463161 0.0728062 0.0538745 -0.0015484 0.0196903 -0.0612172 -0.00981439 0.00366225 0.0557147 -0.0191763 0.02654 -0.047097 -0.0250335 0.00949721 0.00320724 0.0123666 -0.0543172 0.000371812 0.0710393 -0.0423757 -0.011195 0.00571786 -4.8839e-05 0.0701781 0.000213434 -0.00271883 0.0752802 -0.0731357 -0.0846162 -0.072687 0.00582242 0.0938725 0.078823 0.0645341 -0.0696413 0.0427971 -0.0692118 0.0306572 0.0794306 0.00850685 0.000238559 -0.0543601 -0.0899671 -0.00360034 -0.0524224 0.0656488 -0.0873153 0.0715463 -0.0562304 -0.0113185 0.00492053 -0.0238854 -0.0943453 0.00622005 0.0617979 0.0419681 0.0121512 0.0415381 0.0771575 -0.0535028 -0.0567286 -0.0726404 -0.0626407 0.0606724 -0.0294732 -0.0295427 0.0940966 -0.0868145 -0.028345 0.0488764 0.0740612 -0.0511995 -0.0635584 -0.0121426 -8.18008e-05 -0.00782493 0.0784179 0.0150923 -0.0347365 0.00575457 0.0902901 -0.0648762 0.0688256 -0.0827573
3 0.00032079 -0.0634503 0.0390494 -0.0397 -0.0591213 0.0861601 -0.0197509 0.00378176 -0.0798085 -0.0134886 0.0641071 -0.0695947 0.0606062 -0.0464584 -0.063434 0.0709068 -0.0944739 -0.00849007 0.0591587 -0.0812248 0.059355 0.0302042 0.0182634 0.0141573 -0.0078181 0.0732882 0.0317284 -0.0347418 0.0775387 0.0277165 -0.0876148 -0.0826566 0.0847949 -0.00273512 -0.0482765 0.0584515 0.0859018 0.0441522 0.0297875 0.0661292 0.0856513 -0.050241 -0.083054 0.0519932 -0.0152897 0.0732358 -0.0726456 -0.0801305 -0.00481364 -0.0746081 0.0231752 0.0543206 -0.00134242 0.0682428 -0.028017 0.0882191 0.0880284 -0.0809471 0.0753607 0.0858821 -0.0801266 -0.0256906 -0.00806897 0.0753005 -0.0371373 0.067024 0.0136769 -0.0278291 0.010842 0.0460445 0.0237045 0.0641258 -0.0224907 0.0638014 0.0660425 0.0150515 -0.0559845 0.0270366 0.0401661 0.0479724 0.0225978 -0.023807 0.0252432 -0.0495692 0.0700651 -0.0615806 0.00121687 0.0828467 0.0484147 0.045572 -0.0437899 -0.0087728 -0.0438515 -0.0786383 -0.0381081 -0.0473315 0.0314442 -0.0669917 -0.0444699 0.0453033
look -0.0253453 0.0708959 -0.00438365 0.0161039 -0.0335727 0.0334179 0.0825249 0.0680961 -0.0437739 0.0114031 -0.03452 -0.0732106 -0.0163142 0.00277767 0.0215455 0.0261923 0.00884546 0.046718 -0.0187891 0.0656844 0.020462 0.0633175 0.0112887 -0.0313515 0.0268972 -0.0884826 -0.0441644 -0.0802945 0.0363703 0.036063 -0.0410924 0.0301783 0.0474944 0.0114953 -0.0667628 0.0110749 0.0215357 -0.0849248 -0.0485297 -0.0901021 0.0508192 -0.0233199 0.0442847 -0.0108712 0.0645242 0.0394381 -0.0681744 -0.0286637 0.0792104 0.0254859 -0.0692156 0.0883837 -0.0222673 -0.0267131 0.0746444 -0.0333465 0.0527379 0.0571553 -0.0080482 -0.0439457 0.0333269 0.0661753 -0.0211649 -0.059962 0.0502811 0.042639 0.0464937 -0.0553685 -0.0784984 -0.0895158 -0.0665793 0.0640842 -0.010436 0.017057 -0.0770867 -0.0276847 -0.0328853 0.0325904 0.0524046 -0.0815693 -0.0677412 0.0401962 -0.0292239 -0.00722392 -0.014748 0.0448128 -0.0305976 -0.0280512 0.0601165 0.00167492 0.0519155 -0.0595697 0.0399754 -0.00548009 0.0791176 0.0513156 0.0476309 0.0806214 -0.0828231 0.00760096
upon 0.0254336 0.0607507 -0.049959 -0.0664237 -0.0220272 0.070455 -0.0172043 0.0488567 0.107777 -0.0680421 -0.107383 -0.0243477 0.0791529 -0.015787 -0.0311068 -0.0381281 -0.0733078 -0.0881967 0.0832813 -0.0211684 -0.0567458 -0.00947359 0.0086833 0.0271132 -0.0528389 -0.0291419 0.105956 -0.0825056 -0.0739297 -0.0399735 -0.0885274 0.0246593 -0.00764695 0.0844241 0.0595926 -0.100305 0.0644102 -0.0849657 -0.085728 -0.00858592 0.00488458 -0.0332972 -0.063029 -0.0371719 0.0058257 -0.0690014 0.0354943 0.0688545 -0.0701401 -0.00812167 0.0651204 0.05155 0.0905434 -0.0556301 -0.00882234 -0.04757 0.0226384 -0.0566347 -0.100032 -0.0744783 0.0820095 0.0307218 0.0326326 -6.61571e-05 0.0179075 -0.0776816 -0.00754307 -0.00523238 0.051815 0.0111124 0.039648 0.0555585 0.0680883 -0.0597566 -0.102218 -0.0064844 0.067843 0.0481833 -0.0404995 0.079211 0.0278056 0.0781539 0.0296287 0.0751473 0.104499 0.0436465 0.0263963 -0.0204257 -0.0910349 -0.0308509 0.0626037 -0.0101518 -0.0608001 -0.0632364 -0.0918526 0.0746551 0.0659714 -0.0445423 0.0627819 0.106146
downward -0.0863877 0.0409538 0.0506958 -0.0224156 -0.00623013 -0.00187493 0.0833323 0.0194663 0.0265123 -0.0073749 0.0266653 0.0672425 -0.0213817 0.0146316 0.0814758 -0.020367 0.0618072 0.0646125 0.0886607 -0.0106107 0.0650058 -0.0859122 -0.051215 0.0360523 -0.044969 -0.0747556 -0.052694 -0.0874584 -0.0755759 0.0440355 0.00280993 -0.0468228 -0.021966 -0.0953288 0.0867697 0.0160315 -0.0125548 -0.0559978 -0.0858696 0.0103201 -0.0398441 0.0344503 0.0787596 -0.0222331 -0.0238081 0.0957754 -0.0127425 -0.0546857 0.0242631 -0.0805595 -0.0155976 -0.0581952 0.0865378 0.0913993 0.0597442 -0.0303422 0.0791386 -0.0676869 0.0713404 0.083143 -0.0397093 0.0504441 -0.0411759 -0.018326 -0.0070668 -0.091008 -0.0260341 -0.0213084 -0.0151553 -0.0741409 -0.0135647 -0.0599109 0.0695598 -0.00941439 -0.0118289 0.0184463 -0.00942918 -0.0472161 -0.0508399 0.0706639 -0.0618417 -0.0820291 0.0303366 0.0893804 -0.0477118 0.00978165 -0.038899 0.0530529 -0.00725197 0.0788204 -0.0754906 -0.026148 0.0406585 0.0748736 -0.0664266 0.0805819 -0.0607895 0.0749894 0.0649914 -0.0620292
right 0.0433034 -0.0951511 0.0493475 -0.0328185 -0.0345767 -0.109336 -0.0840454 0.00360166 0.069575 0.0349111 -0.0096884 0.0134157 -0.00709784 -0.0399144 -0.0572418 0.0679414 0.0876406 -0.00585318 -0.0626598 -0.0248672 -0.0034586 -0.0522196 -0.0384246 -0.0751845 -0.0144525 0.0732223 -0.0262735 -0.0859919 -0.029197 -0.0675511 0.0585298 0.0965753 0.033151 -0.078864 0.0146084 -0.0839848 -0.0438475 -0.0824685 0.0917754 -0.0962725 0.0660769 0.0871533 0.0411002 -0.0133412 0.00658212 -0.0175761 -0.0295437 0.0676956 -0.0276612 0.0534589 0.00949047 0.0762453 -0.0231285 -0.0741581 0.015407 0.0687165 -0.00828896 -0.00136662 -0.0295768 -0.0860896 0.0180672 0.0536052 0.0574514 0.0347476 -0.0518047 0.000592015 0.0160877 0.0910003 -0.0752499 0.0121381 0.0965044 -0.040513 0.0785354 0.100373 -0.0456214 0.0768508 0.0279851 -0.071801 0.0544669 -0.0656589 0.0133527 -0.0443411 0.0575009 -0.00523054 0.0489889 0.0959818 -0.0303249 -0.0534724 0.0828909 0.00873339 0.0670466 -0.0688974 0.0863535 -0.0111116 -0.056624 -0.0971581 -0.0624766 -0.0124016 -0.0266284 0.00677775
flashed -0.0744233 -0.0397834 -0.0647898 0.019088 -0.0277784 -0.024443 -0.0166427 0.0557213 -0.0462282 0.0459052 -0.0484019 0.00730733 -0.0290562 0.0506859 0.0734961 0.068229 0.083722 0.00233929 0.00140733 -0.00750858 0.0838164 0.0621666 0.00829072 0.00055808 0.0225902 -0.0557022 -0.0165981 0.0705236 -0.0186404 0.044962 -0.0593267 0.0593574 0.0267043 -0.0175824 0.0159957 -0.0516007 -0.018458 0.0379504 0.0640119 -0.0477198 -0.0676579 0.0100409 -0.0735699 0.0606799 -0.0459931 -0.010821 0.0602843 0.0831964 -0.0038563 -0.000218198 -0.0128923 0.0215946 0.0747999 0.0405346 -0.0296835 -0.0286431 0.0823404 -0.0896369 -0.0105723 -0.00351482 0.0950257 0.00370545 -0.0133643 0.0706797 -0.0108943 -0.0683016 0.0717689 0.0321662 0.0696046 -0.00596671 -0.0726455 -0.0503377 -0.0657512 -0.0185448 0.0969734 -0.0749357 0.00587341 -0.0205272 -0.0797301 -0.0860138 0.0545496 0.0806751 -0.0056942 -0.0768684 0.0700254 -0.0022109 0.0180238 -0.0297761 0.0759031 -0.055276 -0.00353849 -0.0957217 0.0399835 0.00938621 -0.0676178 0.0860981 -0.0525299 0.014251 -0.0801848 0.0461528
miss 0.0368049 -0.03931 -0.0417394 -0.0669456 0.0342799 0.072408 -0.0314744 -0.0865194 0.0394197 -0.00464352 0.0394263 0.031742 0.0542399 -0.0372742 0.0464388 -0.0202282 -0.00227552 -0.0541382 -0.0757435 -0.00356542 0.0339878 -0.045221 0.0795005 0.0465069 0.0697262 -0.0813945 0.081712 -0.076597 -0.0655054 -0.0924733 0.0267221 0.0695693 -0.0682742 0.0458846 -0.024776 0.0252649 -0.0809013 0.00245078 -0.0113462 0.0258391 0.0557687 0.0346912 0.0801833 -0.00158873 0.0638528 0.0909622 -0.0289958 -0.0488803 -0.0365836 -0.070295 -0.00740165 0.0652265 0.0826583 -0.0696583 -0.065731 -0.0427742 -0.0111839 0.00481556 -0.068422 0.0931981 0.0258861 -0.00777854 -0.0629614 -0.042528 0.0252709 -0.0811613 0.0645985 0.0367861 0.00695112 0.0447891 -0.0478248 -0.0199765 -0.0738345 0.0522013 0.0498948 -0.0489882 -0.0508815 -0.0723145 0.088457 0.0798705 0.0235494 0.0381768 0.0165316 -0.0665651 -0.046617 0.00192109 0.030528 0.0581797 -0.015013 0.0801641 -0.0869153 0.0349761 -0.0189795 -0.0311457 -0.0784333 -0.00342745 0.0411825 -0.0351323 0.0954178 0.0504193
11 0.0614806 -0.0635765 -0.0384115 -0.0183182 0.0680211 0.09704 0.0859857 -0.0688042 0.0525614 -0.034439 0.0573122 0.0704468 0.0301504 0.0439906 0.0212111 0.0509475 0.0456383 -0.00681605 -0.0958926 0.0401505 -0.0761629 0.0103812 -0.0272685 0.0140798 0.000485631 0.0360691 0.0304598 0.055412 -0.00349011 -0.00743882 0.0464089 -0.0140537 0.039237 0.0726553 -0.0856657 0.000185773 0.0442347 0.0264003 0.0783329 -0.00177972 -0.0137519 0.0871056 -0.028303 0.0577411 -0.0193775 -0.0399349 0.0055769 -0.0350485 0.0542045 0.0223886 0.0270377 0.0548343 0.021907 -0.00329938 -0.0388448 0.0779007 -0.0504677 0.0513774 -0.0624107 -0.0859375 -0.0562932 0.00510596 0.0312391 -0.0237982 0.0194598 0.022625 0.0719138 -0.0155771 -0.0040299 -0.0487722 0.0792035 0.0921662 0.0915089 -0.004968 -0.0684634 -0.0575129 0.0604173 0.0363789 -0.0303207 0.0794033 0.0643695 -0.0851753 -0.078219 -0.0175408 -0.0780391 0.00637911 -0.029157 0.0524165 0.0881322 0.01504 -0.0941095 -0.0253231 -0.0829848 -0.0118231 0.0798958 -0.0849105 0.0417648 4.54596e-06 -0.0208159 0.0132376
else 0.084274 -0.00602341 0.0552225 0.000184954 0.0435573 -0.00519099 0.0375715 -0.0138059 -0.0240299 0.0402693 0.0300929 0.0886875 -0.0394774 -0.000205208 0.0527617 0.0422098 0.0425072 0.0455513 0.0212073 -0.0929844 -0.0872504 0.0193122 -0.0725233 0.0129038 0.085724 0.038914 -0.0554382 -0.0816766 -0.0895923 0.0788537 -0.0104043 0.0863207 0.0298546 0.0924774 -0.0951698 -0.0121013 -0.0777399 -0.0189961 -0.0649827 0.00708571 0.0477287 -0.086821 0.0215301 -0.0949505 -0.0342617 0.0405107 -0.0250019 -0.0124107 0.0501041 0.0655202 0.0663521 0.0773072 -0.083141 -0.0594303 0.0739226 -0.0364944 -0.0911128 0.072339 -0.049203 -0.014467 -0.0795038 -0.0308415 -0.0534636 -0.0747828 0.0671847 0.0364664 -0.0695342 0.00147657 -0.0830693 -0.042798 0.0146667 0.0726907 -0.059715 -0.0809187 0.00675432 0.0833918 -0.00450568 0.0181839 0.084794 -0.0191343 -0.0968868 0.00265734 0.0350987 -0.0666083 -0.0369438 -0.000691018 -0.0838887 -0.0360653 0.0666754 -0.0517733 0.0611685 -0.01194 0.0644529 0.0840051 -0.0381488 -0.0622406 0.0525734 -0.0420316 0.0511197 -0.0892696
roast 0.046113 -0.0715362 -0.0537706 -0.0169484 0.0702276 -0.00883764 0.0777318 0.0483562 0.0481003 0.0551625 0.0155684 0.075712 -0.0432396 -0.0512866 -0.0300583 0.00213992 -0.0301812 -0.046163 0.0407944 0.0412806 0.0686225 -0.0366979 -0.0907919 0.0252732 0.0159512 0.0374357 0.0182849 0.0796588 0.0402088 -0.0408769 0.0902188 0.0767073 0.0781808 -0.0154337 0.0136194 -0.00278294 -0.010758 -0.0484262 -0.0225986 -0.0687672 0.0781949 0.00589274 0.0188897 0.0663505 -0.0748727 0.000334561 -0.00439174 -0.0400577 -0.0770391 0.0344099 -0.0657218 0.0218371 -0.0278554 -0.0142048 -0.0743058 -0.0761388 0.0662121 0.0658081 -0.0832907 0.0259901 0.0456682 -0.0343331 0.06171 0.063743 0.0654725 -0.0270764 0.0471024 0.0799176 0.0546202 -0.0676096 0.0748497 0.006477 -0.00742931 -0.0197291 0.0145229 -0.0202635 0.0749765 0.00834902 0.084143 0.0711833 0.0808173 -0.0110993 -0.0397457 -0.0531171 -0.00633561 -0.0402067 -0.06452 -0.0375463 -0.0303243 -0.0813931 0.064133 -0.0858235 -0.00764929 -0.0397265 0.0366597 -0.0445095 -0.0616296 -0.0548509 -0.0105057 0.00456317
last -0.0869842 -0.0457399 -0.0680169 0.0281245 0.0793483 -0.0646419 0.0585932 0.0639074 -0.0421993 -0.0146343 -0.090035 -0.0520308 0.0706939 0.0010192 0.0887585 0.00323229 0.0389526 -0.00626107 -0.0404453 0.0525507 -0.0394969 -0.0334219 -0.0103554 -0.0766656 0.0367647 0.0859194 0.0292283 -0.0837419 0.00970038 -0.0446228 -0.0487808 -0.0562468 -0.0891427 -0.0395084 -0.00428569 -0.0592815 -0.0804671 0.0803484 0.0625609 0.0135035 -0.0701376 0.0332891 0.0132642 -0.0666549 -0.0285473 0.0524659 0.0558285 -0.0758583 -0.0212229 -0.0688736 -0.0874173 0.0481107 -0.00899789 -0.00734841 0.0867569 -0.0759526 0.0372954 -0.0118129 -0.044996 -0.0454093 -0.07676 -0.0389366 -0.0182614 0.0456828 -0.019167 0.0661657 -0.00286726 -0.0278499 0.0730646 -0.0272033 -0.0273912 -0.0422781 0.0877209 0.0873482 -0.0432378 -0.0193298 -0.0457133 -0.05149 0.0376248 -0.0688416 -0.094979 0.0847761 0.00589013 0.0594405 -0.0565154 -0.0377917 0.0299872 0.019265 0.055621 0.0496844 0.0467241 -0.0925983 0.00424094 0.0444066 0.0345076 -0.0282162 0.0675138 0.0866431 -0.0703744 -0.0677151
is 0.0522531 0.00155848 0.0535263 0.0556308 -0.0172073 -0.0148111 -0.0162615 -0.0423818 0.00540434 -0.00872348 0.0445424 0.0784835 0.00907465 0.0712955 0.0539524 0.0478851 0.0475821 -0.0478118 -0.0595003 0.0703559 0.0371784 -0.00552992 -0.0188939 -0.0194906 -0.0115263 0.0260619 -0.0930374 -0.0658844 -0.00299042 0.0294271 0.0529448 0.0682383 -0.0615349 -0.0523721 0.0969191 0.0176746 -0.0350015 -0.0847878 0.000268543 -0.0901618 -0.0719547 -0.0603273 0.109015 -0.0393036 0.0510453 0.0989228 -0.0437213 -0.0408994 0.0612805 0.00642853 0.0727871 0.0970721 -0.096044 -0.0499114 -0.0198932 0.0936178 0.0836764 0.0573663 -0.0368017 0.0587061 0.0191524 0.0951643 -0.0517322 0.0325067 -0.0548009 -0.0377865 -0.079062 -0.0795369 0.0826332 0.0143401 0.0524726 -0.0637143 -0.0702476 -0.0918196 0.0155007 -0.0559976 -0.0203879 -0.0781565 0.0142033 0.0222275 0.00621393 -0.0288385 0.0106441 -0.0210354 -0.0410999 0.0202363 0.0635953 -0.0668875 0.0337499 0.0507941 0.0459483 -0.0891396 -0.0135904 -0.0553053 0.0596706 -0.0601415 -0.0263988 0.0133568 0.00715994 0.0794597
dream -0.0136311 0.0700656 0.0525082 -0.0578481 0.0513301 0.0723534 -0.00353684 -0.0448844 -0.044389 0.0455396 -0.0454315 -0.0215058 0.00316969 -0.0564484 -0.0790923 0.00848063 0.0286948 0.0870047 0.0354961 -0.0322643 -0.0269751 -0.0834628 0.0852537 -0.0804654 0.0256825 0.00302671 0.0132305 0.0630369 0.0682379 -0.0774166 0.0386593 0.0654736 0.0753561 -0.00685088 -0.0140279 -0.0523958 0.0108597 0.0393876 -0.0631438 -0.0855027 -0.0612913 0.0667332 0.0287868 -0.0789314 -0.00685348 0.0697691 0.00180084 -0.0653459 0.0522494 -0.0266101 -0.0600462 -0.0624224 -0.0297435 0.00107988 -0.0184156 0.00191076 0.0605235 -0.0860751 0.000915343 0.061961 -0.00599895 -0.0222279 0.0758974 -0.0281555 0.0708243 0.0763699 -0.0655188 0.0138985 -0.0614914 -0.0329011 -0.0561346 0.0947616 -0.0213036 0.0571862 -0.00549496 -0.0442188 -0.064941 0.0424661 0.00604046 -0.00404703 0.00699544 0.00488838 0.0942819 0.00738707 0.0260109 -0.0772715 0.0405941 0.0792862 -0.0438711 0.0223891 0.0659605 -0.0442256 -0.00720494 -0.0169097 -0.0631636 0.03053 0.0409627 0.0331784 -0.0537239 0.0182696
fifteen 0.0291097 -0.0564205 -0.033663 0.0698251 0.0645451 -0.0531585 0.0116279 -0.0356639 0.0826031 -0.0485643 -0.0620652 -0.0120605 0.0776384 -0.0885694 -0.064164 0.0378963 -0.0300034 0.0743203 -0.0387622 0.0455184 0.0240886 0.0249149 -0.0172493 0.0934732 0.0300057 -0.0115607 0.0875221 0.0408128 0.0240762 0.0751203 -0.050365 0.0432529 0.0700286 0.0252485 0.00387355 0.0820544 0.0573464 -0.0658417 -0.00441151 0.0670289 -0.0835325 0.015922 0.0161916 -0.0474606 -0.0671491 -0.0550096 -0.0670542 0.0106172 -0.0186478 -0.0638058 -0.0624138 -0.0317672 -0.0855138 -0.0343673 -0.0247622 0.0919004 -0.0343014 0.085187 0.0165544 -0.0337394 0.0340283 0.0579233 -0.0649604 -0.00527007 -0.0373315 -0.0580148 -0.00691868 0.0121201 0.0030947 0.000844461 0.0142758 -0.0598915 -0.0456099 0.0755404 -0.0503186 0.0718033 0.0150018 -0.0481504 -0.062044 -0.0482478 -0.0184892 0.0136813 0.0259394 -0.0781398 -0.0716778 -0.0273833 0.0297633 0.0389282 0.0644802 0.0901988 -0.0174543 -0.0678823 -0.0739572 -0.0254634 -0.0804747 0.0826616 -0.0841126 0.0178606 -0.0542139 -0.0363514
plenty 0.0637659 0.0967728 0.082634 -0.0392855 0.0104844 0.0239057 0.0361387 0.0257638 -0.00283268 0.0273505 -0.0497033 -0.0211082 -0.0234724 0.0599751 -0.0827659 0.0842638 -0.0317004 -0.00894911 -0.0335299 -0.0770889 0.0400785 -0.0214348 0.0892245 -0.0104186 0.0648511 0.00124526 0.0703662 -0.00468357 0.0130882 -0.0720223 0.0327739 -0.0944661 0.0510149 -0.00821505 -0.0128524 -0.0807629 0.0765717 -0.00577123 -0.0791424 -0.0661092 -0.0749802 -0.000814552 0.0501475 -0.0346921 0.0403173 0.0297458 0.0899545 0.0655476 -0.0660317 -0.0879796 0.0915498 -0.0475646 -0.023752 0.0157123 -0.0778227 0.0764734 0.0879494 0.034049 -0.0125206 0.0814105 -0.00340238 -0.0699324 -0.0701676 -0.056703 -0.086509 0.0315011 -0.0119486 0.0118321 -0.0524418 0.0888138 -0.0101011 0.0667113 0.0141711 -0.0832204 0.063953 -0.0804911 0.00955306 0.0268087 0.0857975 0.0267758 -0.02763 -0.0665128 0.0545874 -0.0132714 -0.0534237 -0.0715081 -0.0227335 0.0763913 -0.0253374 -0.0811897 0.0358508 0.0654257 -0.0402133 -0.00862384 0.0477055 -0.0225973 -0.0223224 0.0834558 -0.0561808 -0.0876976
didn’t 0.00924269 -0.0813798 0.0812139 0.0347535 0.06414 -0.0148592 0.0500976 0.00199748 -0.0476704 0.0639092 0.0539769 -0.0147768 -0.037558 -0.0253259 -0.0418153 0.0567629 0.0299524 -0.0583636 0.0207753 -0.0658244 0.0134697 -0.0673095 -0.0437625 -0.00412501 -0.00168894 0.0122199 0.0675394 0.0740197 0.016272 0.0456197 -0.0831423 -0.0856252 0.0694409 -0.0135612 -0.0867821 0.0293963 0.00925125 0.0857172 0.0709672 -0.0305065 0.0399181 -0.00257315 -0.0485021 -0.0546852 0.0259224 -0.0384092 -0.0356855 0.0886525 -0.00953867 -0.0416223 -0.0565603 -0.037773 0.0713031 0.0945722 -0.0194384 0.0458015 -0.0449633 -0.0708083 -0.072059 0.0314206 -0.0560092 0.0574902 -0.0261435 0.0982652 -0.0375597 0.0518846 0.00679839 -0.0219103 -0.0115979 0.0864989 0.071693 0.00450002 -0.0649122 0.0125315 0.0415139 0.0592184 0.0740612 0.0151025 -0.0943267 0.0228917 -0.00431517 0.0361761 0.0724047 -0.0786352 0.0544982 -0.0810032 0.0719332 0.0642579 -0.0266994 -0.0360708 -0.013731 0.0787597 -0.0474125 -0.00365672 -0.0963775 -0.0706795 0.0607028 0.0941069 0.0805966 0.00390583
anything -0.0127826 0.0192842 0.08971 0.0770726 0.0799135 0.0355511 0.0682447 -0.0319057 0.0462365 0.00910568 0.0854533 0.0285086 0.0203851 0.0292601 0.0158187 -0.0689206 -0.09013 -0.0519185 0.00187097 -0.0503579 -0.0161585 0.0462412 0.0462245 -0.00820322 -0.0910595 0.073868 0.0796888 -0.0407239 -0.0758622 -0.0698962 -0.069552 -0.0500971 -0.0769207 -0.0036254 -0.0142422 0.0339366 -0.0674689 0.0872626 0.0225162 -0.0886979 -0.00827043 -0.00592695 -0.0380059 0.00540486 -0.0569127 -0.000585105 -0.0133516 0.0513415 -0.0959359 0.0383549 -0.0841032 0.00349069 -0.00912716 0.071122 0.0205796 0.0667363 0.0957512 0.0266333 0.0086752 0.0294342 -0.0447666 -0.0296844 -0.077351 0.0503704 0.0443275 0.0880712 0.0192068 0.0549996 0.0855309 -0.071031 -0.0960628 -0.00214341 -0.0621477 -0.0235276 -0.0576943 -0.03044 -0.071517 0.0625032 0.0674199 0.0616529 -0.0660125 0.00636304 -0.0141287 -0.0142817 0.0430262 0.0666846 -0.0270598 0.0887689 -0.0279375 -0.0761867 -0.00409484 -0.029807 0.0919157 0.0566306 -0.0659642 -0.0482938 0.0375286 -0.00140876 -0.0768119 -0.0367856
very -0.0242056 0.0501326 0.0724723 -0.0128514 -0.0221235 -0.0545231 -0.0526601 0.0345635 -0.0864607 -0.0552889 -0.113739 0.0302448 0.0649585 0.00384261 0.0917943 -0.103081 0.0849054 0.101846 0.0242794 0.082393 -0.0493793 0.0992373 0.0497337 -0.0573338 -0.0344987 -0.0517219 0.0401614 -0.0591062 0.0663509 0.0617113 -0.072824 0.0823989 -0.05949 -0.0622634 -0.0332156 0.0472145 -0.0411692 0.0148202 0.00285262 0.0285116 -0.0438651 0.0815866 0.0164359 0.0576918 0.0540954 0.0848868 -0.0301213 -0.0912535 0.0548389 -0.042077 0.0359983 -0.0973272 0.0595816 0.00465085 0.0614827 -0.00130485 0.0506602 0.0340623 0.0351357 -0.000673582 0.00421322 0.0632044 0.0259592 0.0839595 0.0632659 -0.104207 -0.074343 -0.0407977 0.0652656 -0.0871901 0.0458491 -0.054661 -0.0897957 0.00505246 -0.046385 -0.0417799 -0.0447165 -0.00555818 -0.0436292 0.0538876 -0.0602937 0.0191623 -0.0436299 0.0790557 0.0105447 0.0759255 -0.0188654 -0.0383682 -0.0377269 -0.0451407 0.00967974 -0.021968 -0.0420317 0.0460564 -0.0858015 0.0252523 -0.0521351 -0.0898141 0.00876128 0.071318
about 0.0289996 -0.0642082 -0.0736086 0.0376261 -0.00287837 0.08421 -0.0299715 0.0356598 -0.0596277 0.0734521 -0.0658957 -0.0316252 0.0803098 0.0193511 0.0491208 0.0772117 -0.0594228 -0.0283841 -0.0422991 0.00113963 0.053794 0.0450235 -0.0148155 -0.110086 0.0735756 -0.0133454 0.0203067 -0.016672 0.0481282 0.0323646 -0.0266639 0.100814 0.0912719 -0.0688588 -0.0907347 0.0682662 -0.0279322 -0.0243367 -0.0619633 0.0179197 -0.0432683 0.053979 0.0544724 0.0688354 -0.0375195 -0.0315161 0.00211641 0.0102142 -0.104061 -0.0394504 -0.0463216 -0.0237025 0.0267146 0.079164 0.0208483 -0.0169146 -0.0498581 0.00165726 -0.0101992 0.0382992 -0.0245286 -0.047613 -0.0535732 0.0486975 -0.0438891 -0.0830213 0.0717855 -0.0115096 0.0152085 0.0728915 -0.0112351 0.0783307 0.0695551 -0.0799668 0.0415746 0.00485013 -0.0448886 -0.0813508 -0.0329706 -0.0148964 0.0207531 0.0678273 0.0349546 0.0971954 0.0146541 0.0659564 -0.0561157 -0.0497585 -0.00589652 -0.0266432 0.0562522 0.060126 0.0385313 0.102596 -0.0706243 0.065458 0.0317042 -0.0198787 0.0168692 -0.0382236
trying 0.0796124 0.0616153 -0.0722913 -0.0139936 -0.0675916 0.0306538 -0.0839241 -0.0526505 0.0355218 0.0783273 -0.0564084 0.0851736 -0.0790712 0.0102874 -0.0626852 0.00987883 -0.0400174 0.0130451 0.0503855 -0.0551043 0.0397072 0.0548073 -0.0392636 0.086872 -0.0706999 -0.0470482 -0.0518463 0.0433492 -0.0449451 -0.0180816 -0.0466227 -0.0926916 0.0840751 -0.0823986 0.0152323 -0.0383311 -0.0707785 0.0188385 0.0767918 -0.010201 0.0248922 -0.0180284 -0.0307427 -0.0336074 0.0537887 0.0767847 -0.0602252 0.0657291 -0.0261505 0.0804728 -0.00928432 0.0163629 -0.0202836 -0.0548519 0.0255097 0.0050072 0.0309079 0.0665305 -0.0314674 -0.0317981 -0.0137404 -0.0923336 -0.027478 0.05861 0.00393475 0.00861374 0.045561 -0.0565584 0.0872811 0.0160923 0.0292065 0.0816926 0.0123665 -0.0659111 0.0472776 0.0335328 0.0649454 0.0882092 -0.0602063 0.0160722 0.0416772 0.0412465 -0.00535227 0.0795487 -0.0196 -0.0108643 0.0888807 -0.0236954 0.0855007 -0.00201079 0.0261679 0.00991753 0.0474181 -0.0277729 -0.070054 -0.0385778 -0.0239669 0.0156824 0.0674114 0.0257033
among -0.0773513 -0.00257126 0.0205054 0.0523506 0.0258366 0.0803577 0.0215232 -0.0611034 -0.0158764 -0.0431733 -0.0149027 -0.0286504 0.01017 -0.069558 0.0786502 -0.0234592 0.0863236 -0.0279504 -0.0147451 0.0672998 -0.0829461 0.020985 0.0274735 -0.0773423 0.0854821 -0.0644044 -0.0204393 0.000312025 -0.0667643 -0.0501279 0.0848091 -0.0785885 -0.0288829 -0.000368079 -0.0548597 -0.0333226 -0.0595691 -0.060191 0.0572237 -0.0974807 0.00989808 -0.000169294 -0.0670424 0.0839186 0.0459825 -0.0239536 -0.000883291 -0.0616511 -0.0399751 0.0877214 0.046621 0.0784808 0.0303876 0.0732254 -0.0612553 0.0314022 0.00393461 0.0858746 0.00991662 -0.05185 0.0477759 0.0723352 0.0374556 0.0808234 -0.0572774 0.032483 0.0659485 0.0838081 0.059694 -0.0194721 0.0645186 -0.0406225 0.020563 0.0383257 -0.00596855 -0.0498346 0.0240229 -0.055252 -0.090831 0.0115756 -0.00702194 -0.0129991 0.0300882 -0.0176235 -0.00153089 -0.028333 -0.0897359 -0.00850541 -0.0525012 -0.0466273 -0.0381161 0.0924729 0.0506775 0.0333292 0.0697664 -0.0185627 -0.0208785 -0.0397772 0.0153494 -0.0789926
country 0.0840563 0.030668 -0.0852766 -0.038092 0.0260028 -0.0352629 0.0495912 -0.0802259 0.0640323 -0.0768703 0.055775 -0.0647783 0.0746362 0.0854275 -0.0140186 0.0425518 -0.0802977 -0.0401698 0.0203096 0.0959963 -0.0332155 0.00463323 -0.0709948 0.0577515 0.0465931 -0.0469527 0.0570699 -0.0738245 0.0245273 0.0815908 -0.0310746 0.0583812 0.0572955 -0.0125072 0.0620178 -0.0129562 0.00760223 0.0290657 -0.0340347 -0.0248357 -0.00511366 -0.0191621 0.0416369 -0.0684678 -0.0130271 0.076587 0.0717442 0.087623 0.0246955 -0.0592665 0.0186745 -0.0649844 0.0369338 -0.0109858 0.0537039 -0.0155914 0.0449417 0.0622014 -0.00847428 0.0649484 0.0242889 0.011184 0.0241053 0.0684379 -0.0686864 0.00205119 -0.022904 0.0453098 0.0755835 -0.0379951 -0.0418686 0.0185062 0.0269911 -0.0442533 -0.0595023 0.0406968 0.0149769 0.0821109 0.00870566 -0.0962977 0.0824228 -0.025377 0.0275126 0.0469247 0.0578143 -0.0491574 -0.0366117 0.00267198 0.0860281 0.0383133 -0.0557095 0.0349107 0.0738798 0.0396545 0.0234707 -0.0647845 0.00618385 0.017982 -0.0154915 -0.077036
cherry -0.0587535 -0.0239071 0.0315677 0.0139769 0.0698323 0.00982711 0.0901333 0.0648933 -0.0457035 -0.0821926 0.0345619 0.00760749 0.0354 -0.0453929 -0.092255 -0.0282289 0.053136 0.0355873 0.0329083 0.0424083 -0.0815409 -0.0415664 0.0516075 0.0914895 0.0721235 0.0669153 -0.0863871 -0.0637867 0.0434275 0.0738794 -0.0109003 -0.059799 0.058291 -0.0577204 -0.00273812 -0.0169669 -0.0260376 -0.0505873 -0.0577551 0.0462911 -0.075096 0.0698124 0.0909106 -0.0932313 -0.081751 -0.0138203 -0.0381513 0.037802 0.000700333 -0.0453137 0.0460474 -0.0770278 0.0455258 -0.0329098 0.0804054 -0.0643559 -0.0684257 -0.0120273 0.0660504 0.0625715 -0.0481796 0.0196255 0.0227757 0.0387689 0.0617563 -0.00966958 -0.0285295 -0.0891955 0.00954896 -0.0263416 0.00456404 0.0241186 -0.0285703 0.00604377 0.0746875 0.0872986 -0.0855811 -0.0724868 -0.0486736 0.0754466 0.031749 -0.0531229 0.0632187 -0.0187648 -0.0203677 0.0483909 0.0506459 0.0525445 -0.0260579 0.0178284 0.0862875 0.0856789 0.0705316 -0.0437123 -0.0304597 -0.0855822 -0.0527287 0.0829309 2.25267e-05 -0.0570658
grand 0.0476359 -0.0814601 -0.027437 -0.0204816 -0.0823864 -0.00263111 -0.0862685 0.0727376 0.0334153 0.0483196 0.0838021 -0.0434565 0.0590782 -0.0793444 -0.00807635 -0.0609503 0.0478999 -0.0306512 0.0404248 0.0391314 -0.0616272 0.0664435 0.0864493 -0.00887 -0.0583581 -0.0942965 0.0608793 0.0691078 -0.0264215 0.0339232 0.0741841 0.0764366 -0.0330946 0.0471341 -0.0863475 -0.0248063 -0.0516 -0.0744935 0.0683874 -0.0775449 -0.00305051 0.0133889 -0.0297152 0.05992 -0.050952 -0.0716781 -0.090976 0.0434604 0.0602795 0.0565109 0.0624174 -0.0316164 -0.0828821 0.0721218 -0.0554748 0.0143309 0.0884972 -0.00249222 -0.0675297 -0.0494942 -0.0564765 0.0422592 0.000989942 0.0651992 0.0266646 0.0439185 -0.0743873 0.0833608 0.0212618 -0.0721288 -0.0959675 -0.0690878 -0.0633704 -0.0180233 0.0571605 -0.0248629 0.0337379 -0.0500363 0.00454792 -0.0689473 0.00744708 0.0541374 -0.0292329 0.0835205 0.0750009 -0.0142242 0.0146707 -0.0663423 0.074301 0.0421889 0.0259584 -0.0675152 -0.0255582 0.0652663 0.00343059 0.0173697 -0.03089 0.0686301 -0.0202215 0.0170683
likely 0.0332608 0.0475932 0.0468806 0.0440176 -0.0131316 -0.00792512 0.0076002 -0.0323975 -0.023122 -0.0490442 -0.0421207 0.0153618 0.0477101 -0.0555992 -0.0262227 -0.0243702 -0.0557207 -0.067206 0.0304359 0.0275811 -0.0322024 0.0534504 0.0848116 -0.0768633 -0.08604 0.0443976 -0.0600774 0.0791934 0.0160092 0.0572772 -0.0310744 -0.0211179 0.0403611 -0.05439 0.068732 -0.0263177 0.0317954 0.0486217 -0.0239994 0.0823987 -0.0316865 0.0812813 0.0245935 0.0518803 0.0459508 0.0502353 -0.0270729 0.0655369 -0.00740946 0.0398619 0.0515664 0.0220135 -0.0158173 0.0454576 -0.0269082 -0.0532301 0.0870848 -0.00684849 -0.0478462 -0.00155731 -0.0326981 -0.0795323 0.0399675 -0.00438521 0.0481718 -0.0787141 -0.0511341 -0.0236516 0.0498869 -0.0337081 -0.0481013 -0.0488813 -0.00951511 -0.0588158 0.0324218 -0.000840379 0.032364 0.0196328 0.0866193 0.0660555 0.0417049 -0.027978 0.0158633 0.027277 0.0642691 -0.0846119 -0.0832351 -0.0181627 -0.0430843 0.0433299 -0.0941856 -0.0316667 0.0518525 -0.0832613 -0.0690062 0.0674065 -0.0672807 0.0799467 0.0195104 -0.0117795
roof -0.0321685 0.0345865 0.0300816 -0.00826463 0.0891301 -0.0833517 0.000735418 0.0133927 -0.0316437 -0.0346608 0.0407829 -0.0494078 0.0561729 -0.00473281 -0.0136873 0.079758 0.0374982 -0.0211446 0.0958735 0.015829 -0.0694107 -0.0356416 -0.0160494 0.0818729 0.0101215 0.0813073 0.0145822 -0.0402972 0.0113395 0.0970128 -0.0336459 0.0823678 0.0114927 -0.0942162 -0.0321343 0.0433547 0.0825332 -0.0716456 0.0447696 0.0487096 0.092107 -0.0469406 -0.0235492 0.0513669 0.000559515 0.0772755 0.0721293 0.0709061 -0.00345467 0.0150962 0.00738955 0.0306255 0.00731171 -0.0608828 -0.0812387 0.0614536 0.0950622 -0.0870855 -0.0494605 -0.0280831 0.00290225 -0.0129499 0.0580127 0.0561238 0.058374 -0.0279522 -0.0427295 0.0732765 0.081518 0.0194543 -0.0846042 -0.0539926 -0.0794791 0.0155072 0.00597345 0.0683653 -0.076116 0.0625543 0.0689109 0.0737734 -0.0506862 -0.00535234 0.0450629 -0.0212887 0.0805224 0.0825684 -0.00858204 0.0702657 -0.0576735 0.00513538 0.0970368 0.00544916 -0.0122418 0.0524599 -0.0931928 0.0857773 0.0518973 0.0887279 -0.0131692 -0.0804189
shutting -0.080955 0.0820506 0.0406803 -0.00778173 0.0172773 0.0557232 -0.0111376 -0.0314306 -0.0544101 -0.063815 -0.0709445 -0.0761825 -0.0634229 0.0306409 -0.0463935 -0.0483833 -0.045964 0.0142713 -0.0362131 -0.00372303 -0.0870946 -0.0418939 -0.0559714 0.0486865 -0.0223102 0.0154678 0.0817268 0.0833074 0.082857 0.0377312 0.0925375 -0.0475289 -0.0948766 0.0521784 -0.0445776 -0.0185696 -0.0233643 0.0647497 0.0245396 -0.0598035 -0.0394412 0.0205056 -0.0583592 0.0363797 0.0430029 0.0193266 -0.0477448 -0.059771 -0.0212833 0.087458 -0.0768156 -0.0462686 0.0379761 -0.0917519 0.00493724 0.0137801 -0.0368419 -0.0544846 0.059694 -0.0629454 -0.0526557 -0.0878677 -0.0546496 -0.0559975 -0.0297991 -0.0119158 0.0267516 -0.061161 -0.00730677 0.0918863 0.0191553 -0.00379927 -0.0891716 0.044789 -0.08262 -0.0155371 -0.0456315 0.0703492 0.0938915 0.0430534 0.0417861 0.0150699 0.00328057 -0.026548 -0.0446535 -0.0551375 -0.010698 -0.00460162 0.0324414 -0.0186263 0.0770255 -0.0869 0.0441302 0.0446864 0.0200471 0.07591 0.0468995 -0.0903275 0.00773744 0.0161049
0 0.023252 -0.0672044 -0.0267339 0.0279452 -0.0780296 0.0629587 -0.0444547 0.0776496 -0.0224921 0.0130018 0.0725287 0.0183094 -0.0938256 -0.0638268 -0.0232112 -0.0201625 0.0055109 0.0786668 -0.0380756 0.00212682 -0.0480368 0.00695745 0.0189257 0.068429 0.00838855 -0.0871249 0.084273 -0.0167638 0.0290736 -0.0737094 -0.0667425 0.0905803 0.038325 0.00537967 0.0616049 0.000940241 -0.0178285 0.0429435 0.0882925 0.0182918 -0.0108136 0.0244287 0.0493584 -0.0671205 0.0180775 -0.0810335 -0.0776893 -0.0198225 -0.00722031 -0.0906414 -0.0755636 -0.0199883 0.0683066 -0.0148482 0.092634 0.0759178 -0.0804899 0.0383535 0.064951 -0.0943198 0.0382861 -0.0195172 -0.0156537 0.00515151 -0.0228929 -0.0127004 -0.0963991 -0.0603212 0.0488277 -0.0548809 0.0314679 -0.0848277 -0.0130483 0.0206943 0.0334339 0.0377141 -0.0206891 -0.0133394 -0.0126671 0.0925241 0.033044 -0.0760105 0.0559507 0.0504374 -0.0100874 0.0703118 0.0434736 -0.063687 -0.0714262 -0.059139 0.0155417 -0.0410718 0.0844952 -0.0434944 0.0293471 0.0927548 -0.0406859 -0.036759 0.0174778 -0.0283305
but 0.0634029 -0.0392149 -0.0922265 0.0399411 0.0138976 -0.110408 0.0752548 -0.006031 -0.0543342 0.0141059 -0.0795967 -0.06013 -0.0074457 0.0696474 0.0396765 0.075239 0.0512105 -0.0331286 0.0713102 0.0029752 -0.0738015 0.0154511 -0.0974477 0.00580589 -0.0490266 -0.104826 -0.0241291 -0.121745 -0.0613728 -0.0565986 -0.059447 0.108454 0.0484633 -0.0999512 0.0311395 -0.0289486 -0.103943 -0.100737 -0.0592926 0.0300409 0.0261963 0.0647485 -0.0833738 0.0669576 -0.0359516 0.0575277 0.059842 0.0414485 0.00987947 -0.0205236 -0.0748746 0.0258957 -0.115278 0.0706951 -0.0858604 -0.0404208 0.101496 0.0790743 0.00669976 -0.0547705 -0.10207 -0.0158178 -0.0532494 0.0913405 -0.0892498 -0.0982916 0.0741186 0.118534 -0.00616076 -0.0317706 -0.0392151 0.0542456 -0.0223018 0.0113493 0.0235454 0.088248 -0.0660471 -0.0320811 -0.00515445 0.0959775 0.0622851 0.034026 -0.0284725 0.063388 0.00845189 -0.0458101 0.0650582 -0.0295983 0.026972 -0.0811367 -0.0440238 0.0502819 0.0297526 0.0717915 0.0433585 -0.0712501 -0.0432523 0.0360625 -0.0321871 0.0910163
‘well -0.0379452 0.0539872 0.0116835 -0.0389619 -0.062282 -0.0127151 -0.0122202 0.0698416 -0.00553141 -0.0776121 -0.000114937 0.0329177 0.0339071 0.0588432 0.0682719 -0.0665723 -0.0603088 -0.066451 -0.00429302 0.0400043 -0.0655587 -0.0309006 0.0237897 -0.078325 0.0453773 -0.05626 0.0806029 -0.0197509 0.0377789 0.0152781 -0.0487203 0.0203879 -0.0885941 0.0487508 0.0653363 0.0514637 0.074924 0.0269257 -0.00477253 -0.0726246 -0.0710475 0.00896641 -0.0796942 -0.0184585 -0.0850576 0.0834223 0.044808 0.0771314 0.0393904 -0.0796547 0.0309721 -0.0505808 0.0603763 -0.0538612 -0.0386024 0.0278764 -0.0714069 -0.0267501 0.0458345 0.0690699 0.049369 0.0487128 0.00507174 0.0470759 -0.0127553 0.0102181 0.0112051 -0.00687791 0.0691441 -0.090516 -0.0532394 -0.0527208 -0.0684877 -0.0740577 0.0877139 0.0526559 0.0161553 0.0851897 0.0810759 -0.0700898 -0.066233 -0.00262589 -0.0802263 0.0657844 0.00506414 0.0897723 0.0848009 0.0277725 -0.0733387 -0.0254175 0.0684294 -0.065417 -0.0731162 0.0594889 -0.0848668 0.0821744 -0.0908473 0.0191856 -0.0177396 -0.0117866
license -0.0766891 0.0504546 -0.0903494 -0.0229325 -0.0857476 0.0817805 0.0180167 -0.0720142 -0.045351 0.0568217 -0.0339213 0.00960678 -0.0791579 0.0054741 0.0713111 -0.0250467 0.0170353 -0.0452735 -0.0404836 -0.0714167 0.0658878 0.0418773 -0.0181694 0.0602229 -0.0463454 0.0270594 -0.0288411 0.0133703 0.00908827 -0.0554292 0.077694 -0.0647145 -0.00446924 -0.0675841 0.0391664 0.0758736 0.0253149 0.0241078 -0.0674338 0.0807009 -0.0716834 0.0435705 -0.0783726 -0.0481054 0.0739914 0.0913605 0.0409023 0.0259954 -0.0349753 -0.0322008 -0.0294955 0.0790113 0.0284671 0.00445964 -0.0564949 0.0358035 0.0615435 -0.0728212 -0.0042721 -0.00681005 0.0440011 0.0626771 -0.0565887 0.0633003 0.0824121 -0.0682118 0.0665671 -0.00863611 0.034387 -0.0543857 0.0397119 0.0533627 -0.0158729 -0.0341544 -0.0294542 -0.0160464 0.0381859 -0.0465052 -0.0179062 -0.0675904 -0.0727792 -0.0209416 0.0724535 0.0479415 -0.00668409 0.0601957 -0.0721045 0.0461959 -0.0129674 -0.0311687 -0.0254108 0.0335501 0.0537476 -0.0799328 0.0743984 0.0759469 0.0837013 0.0681032 -0.00652893 -0.0269188
bright 0.0416576 0.0655756 0.0194215 0.0883412 0.0259556 -0.0536679 -0.00350632 0.0589306 0.00305795 -0.084765 0.0191869 -0.0590333 0.018811 0.0222321 -0.0120064 -0.0131091 0.0521006 -0.0308911 -0.0256499 -0.0358012 -0.0631329 0.0563376 0.0490567 0.00509956 0.00567811 -0.058396 0.0145411 0.0583739 0.02073 0.0858678 -0.0194515 -0.0147828 -0.064594 0.0932468 0.0845854 -0.0467268 0.0266641 0.0559474 -0.081899 0.0481996 -0.0645093 -0.0221649 -0.0525469 0.0848638 0.0776403 -0.0603848 -0.00476728 0.0756508 0.0228288 -0.0668385 -0.0512734 0.0679809 -0.0454452 0.0289878 -0.0453479 0.0107695 0.0558563 -0.0548616 0.032283 -0.0325075 0.0114452 0.0696043 -0.0556412 0.00889091 -0.0520731 0.0779283 0.0884238 -0.0821793 -0.0764908 -0.0233829 -0.0477017 -0.0925508 -0.0552197 -0.0527197 -0.063012 -0.00315096 0.0855201 0.0134011 -0.0540295 -0.042095 -0.0802206 -0.00180963 0.0166364 -0.0527732 0.00417875 -0.0813287 -0.0714248 0.0442247 0.046444 0.0695118 -0.0835211 -0.0574953 -0.0971322 0.0955287 0.0689956 -0.0607634 -0.0610629 0.072852 0.0303927 0.00365929
fortunately -0.0677029 0.0666807 0.0872823 -0.0673564 -0.072774 -0.0304619 -0.039545 0.0587996 -0.0540963 0.0584662 0.00251225 0.0105526 -0.03818 -0.043008 0.0620159 0.0651744 0.0283002 0.00374521 0.0648276 0.0877369 -0.02807 0.0239398 -0.0798329 0.0438356 0.041091 -0.0800498 -0.00890549 -0.00368589 -0.0264732 0.0784082 -0.0169954 0.096948 -0.00487909 -0.0876056 -0.00336886 0.00283856 -0.0693622 0.0053336 0.0310341 -0.00584744 -0.0769093 0.0191234 -0.025296 0.016372 -0.0607079 0.0165393 0.0396751 0.0629051 -0.055498 0.055952 0.059851 -0.014145 0.019444 0.0551053 -0.0856035 0.00116244 0.0427163 0.00538871 0.00526779 0.00718059 0.0721556 -0.0532311 -0.0910801 -0.0303879 -0.0291871 0.0129876 -0.0477308 0.0641155 -0.034173 0.0290151 -0.0125523 0.026587 -0.0297849 -0.0903292 0.0312895 -0.00394114 0.069539 0.0583609 -0.0182351 0.0461629 -0.0525316 -0.00302911 0.00538176 -0.0687511 -0.03761 0.0194274 -0.0589192 0.0610368 0.0107135 -0.0850097 -0.0153017 0.0419606 0.0692952 0.0714689 -0.0612968 0.0450773 -0.0501344 -0.0687359 -0.0742414 0.0442435
any -0.036718 -0.0752262 0.025005 0.0292026 -0.0141008 0.0406496 -0.000691695 -0.0848576 0.0419396 -0.0982848 0.0164263 0.0778244 0.0766686 0.0832857 -0.101408 -0.0612549 -0.0770948 -0.0411898 -0.0258203 0.0903364 -0.0982398 0.00614047 -0.0906056 0.0620742 0.0187009 0.0304966 -0.0591085 -0.0996032 -0.0856635 -0.0696434 0.0977712 0.0467144 0.0554112 -0.0240279 -0.0683391 -0.0123253 0.0747406 -0.0315183 0.0199785 -0.0842575 -0.0601465 0.0502275 0.0552636 -0.0468877 -0.00703125 0.0281243 0.0432964 -0.0674965 0.0614908 0.0427717 -0.0970511 0.00729791 0.0631726 -0.0989563 -0.053442 0.00412805 0.0695032 0.00959838 0.0510721 0.0102816 -0.0747651 -0.00993338 0.067431 0.0968948 -0.0342799 0.0341416 -0.0481103 0.0129028 -0.103683 -0.00178453 0.0269887 -0.0630426 -0.0224445 -0.0863217 0.0326015 0.0441767 0.0732156 -0.0132463 0.092794 0.036501 0.0568949 0.0437488 -0.0941899 0.051253 -0.0455584 -0.0788428 -0.069469 0.0177228 0.0102577 -0.0504476 -0.0842687 0.0918935 -0.0758924 0.074157 -0.0309314 -0.0537258 -0.0859779 -0.0809899 0.0520119 0.00656134
beginning 0.0263487 -0.0060775 -0.0678863 -0.0841658 -0.0796058 0.051213 -0.022753 -0.0850873 0.0820954 -0.0721785 0.0936953 0.0781342 0.00911101 -0.0284837 -0.0875295 -0.0739296 -0.0859018 -0.0792906 -0.0100973 0.00422511 0.0157244 -0.00645564 0.0135243 -0.0611719 0.0395515 -0.0435176 0.0388529 0.00997188 -0.0366251 -0.0434277 0.0522842 0.000585832 0.0863589 0.0406505 -0.0516962 0.0809836 -0.0631507 -0.0265844 0.0648222 -0.0485101 0.0230736 0.0806092 -0.0615475 0.01279 -0.073773 0.0588407 -0.0221897 0.040284 -0.0330403 -0.0537987 -0.0344208 0.0380212 -0.0471855 0.00905944 -0.0329042 0.04475 0.0796326 0.0864475 -0.0617864 -0.088484 0.0512381 0.0663021 0.0240644 -0.0383886 -0.0221727 0.048826 0.0844953 -0.057171 -0.0832628 0.0120036 0.057872 0.0664863 -0.0631073 -0.0552587 0.0268467 0.0495457 -0.0198027 0.00750723 -0.0642533 0.0636626 -0.0562551 -0.0706362 0.0928016 -0.039307 -0.0555953 -0.0719889 -0.0645357 0.0113742 0.0344851 0.00767744 -0.0578116 -0.0606123 0.038715 -0.0304192 -0.0680092 0.0407019 -0.0697304 0.0185693 0.024197 -0.0726445
should -0.0964795 -0.0632705 0.0929656 0.0233471 0.0326553 0.0740698 -0.093769 -0.0232046 -0.0664291 -0.016709 0.0550244 0.0281903 0.010468 0.0697376 -0.0236878 0.0512937 0.0845462 -0.0616305 0.0110562 -0.0734785 0.00572731 -0.0911024 0.0311616 -0.0932618 -0.0149173 0.0442499 -0.0162272 0.0668936 -0.0153499 -0.0775772 0.0279779 0.0793905 -0.0494564 -0.0402701 0.00713559 0.010844 0.0772517 0.0165582 0.0717974 -0.0363578 -0.0256246 0.0666835 -0.0675805 0.0496177 0.0481086 -0.0328716 -0.0346926 -0.0385138 0.0424493 -0.00120108 0.0512363 -0.0167127 0.0698107 0.0197758 -0.0621503 0.0799539 -0.0562022 0.0762369 -0.0227303 -0.0444053 -0.0186971 0.013884 -0.0446934 -0.0818205 0.0855595 0.0781384 -0.0680427 0.0403629 -0.0646627 -0.0406971 0.0191352 0.029152 0.00115238 -0.0195096 0.0879885 0.0274619 0.0205006 -0.0726434 0.0591583 -0.0253166 0.0723842 -0.0137163 0.0837756 0.0573024 -0.0330683 -0.0168816 0.0594819 -0.0661571 -0.01668 0.00949737 -0.022329 0.0152284 -0.0703784 -0.0627664 -0.0172392 0.0262494 -0.0290459 -0.0359667 -0.0613755 0.00410048
sooner -0.00640033 -0.0302586 -0.0511267 0.0335348 0.0668558 0.0604467 0.0840712 0.00699861 0.0190523 0.0168715 -0.0835956 -0.0921167 -0.0344434 0.0924935 -0.00175262 0.0496001 -0.0449206 0.0292559 -0.00447212 -0.0330565 0.0561475 -0.0574053 -0.0586319 0.0661092 0.0190818 -0.0648192 -0.0145589 0.0353506 -0.0892197 -0.0401821 0.0170081 0.0838393 0.0826023 0.0396807 0.0460123 -0.0181723 -0.0862773 0.0611961 -0.0237863 -0.0311327 0.0590707 0.088066 0.0484695 -0.0800891 -0.0931486 0.0175192 -0.0445651 0.0234892 0.0863528 0.00727436 -0.0362438 -0.0804797 -0.0173185 0.0124461 -0.0548385 -0.0770375 0.046299 0.0566848 -0.0625676 -0.062822 0.00119085 0.048204 0.0545245 -0.082179 0.0132934 -0.0280815 0.0570242 0.000499994 -0.0626693 0.0284964 0.0923901 0.091936 -0.0550484 -0.0614596 0.0382819 0.0140019 -0.0127648 0.00501792 -0.0196378 -0.022905 0.0946271 0.00924505 0.0462739 0.0896628 0.00386533 0.0708405 -0.039669 -0.00148704 -0.00378164 -0.0816679 0.0764316 0.0664516 -0.08315 0.0376789 0.0779844 -0.0104476 0.00410529 0.0510088 0.0544601 -0.0809821
www -0.0512356 0.0779334 -0.0371328 -0.0773704 -0.061806 -0.0414197 0.0358098 0.0848881 -0.0405881 0.070866 -0.0251385 0.0277718 0.0585615 0.0317513 0.0650431 -0.0360149 0.0146585 -0.0751037 -0.0330586 -0.0348645 -0.0285905 0.0806958 0.0211111 -0.0942602 -0.00555441 -0.061002 0.0559736 0.0155003 0.052819 -0.019774 0.0621422 0.00295768 -0.0433948 -0.0396879 -0.0208049 -0.0208531 -0.0304531 0.0594983 0.00396904 0.0165665 -0.0011186 0.0437216 -0.046643 0.0890772 -0.0504069 0.0897699 0.031308 0.0481992 -0.093421 -0.0608963 0.0880048 0.0416232 0.0430292 0.0601824 0.0514946 0.0202544 -0.088177 -0.0729318 -0.0237696 -0.000878315 -0.0201838 -0.0297436 -0.0433253 0.064873 -0.0464735 0.005332 -0.0288637 0.0457459 -0.0276665 0.0208759 0.00580711 -0.0602718 -0.044558 0.0180691 0.00972044 0.0630415 0.0426399 0.00144261 0.0223718 -0.0863347 0.0899644 -0.059446 0.0217922 -0.0150489 -0.0248752 -0.0481619 -0.0292301 -0.0775251 -0.00414522 -0.0758746 -0.0452753 -0.000591269 0.0583117 -0.0232589 0.0665799 0.0125122 0.0783343 -0.0376463 -0.0106562 0.0556116
flavour -0.00321642 0.0533266 -0.0159295 0.051823 0.0477432 -0.00877799 -0.0197719 -0.0623407 -0.00614214 -0.0927327 0.0616028 -0.0909608 -0.0524697 0.0841213 -0.00862255 -0.0463665 0.00875789 0.0163205 0.0396845 0.0026714 0.0696221 0.0205815 0.0210315 0.0679402 -0.0316303 0.0266623 0.0442344 -0.0945581 -0.0389782 0.0788448 -0.0243256 -0.0679914 0.0038668 0.0548659 -0.0337471 0.0704448 -0.00925118 0.0939886 -0.0436671 0.0618678 -0.0509533 0.0800572 0.0287722 -0.0314914 -0.0393264 0.0572032 0.00226364 0.0266251 0.0335354 -0.0135014 -0.0566312 0.0168058 0.0783445 -0.0625784 -0.0767948 -0.0203787 -0.083394 0.0186394 -0.0452966 0.0184364 0.0847194 0.0546627 -0.0276508 -0.0719161 0.0284221 0.0264411 -0.0562251 -0.0198318 -0.0506245 -0.0306859 0.0736573 -0.0781947 0.00642232 0.0549826 0.0204234 0.0641284 -0.064683 -0.00372105 0.0740308 -0.0855507 -0.0611262 -0.0563833 -0.0144375 -0.0121132 0.0741023 -0.0568856 -0.0262533 -0.0664406 0.0749986 -0.0822306 0.0321131 -0.039229 -0.0287838 -0.0624357 0.0251314 0.0448416 -0.0837932 0.0640743 0.0569633 -0.0514979
feeling 0.00747738 0.0636956 -0.071856 0.0088594 -0.0264537 0.0601489 -0.0539094 -0.086139 -0.0409114 0.065688 0.0236959 0.0454469 -0.0177516 -0.0720351 -0.0344949 -0.0129655 -0.0644227 -0.0552489 0.0626762 -0.00725733 0.0485959 0.0464696 -0.0840372 0.0952301 0.0562573 0.0245901 0.0569564 0.0128623 0.0656291 0.0615487 0.0474551 -0.0576354 -0.0561095 0.0485747 -0.0277567 0.0220777 -0.0872825 0.058424 -0.0592972 0.0241185 -0.00925075 0.0540732 0.0497189 0.0495018 -0.0267301 -0.040986 0.0224621 0.0792634 0.078111 -0.075732 0.022299 0.0743022 -0.0436394 0.0120632 -0.00102932 -0.0372927 -0.0864004 0.0266604 -0.0663944 0.000309504 -0.0660594 -0.0582355 -0.0152531 0.00925544 0.0416532 0.0100684 -0.0354063 0.0154216 0.0276977 -0.0488866 0.0790807 0.0198421 0.0437595 0.024984 0.0925569 0.00184599 0.0416605 0.0744594 0.0966708 -0.0663396 0.0170505 0.0508494 0.0748307 -0.0827347 -0.015517 -0.0275736 -0.0871867 -0.0272799 -0.0209397 0.0151914 -0.0870615 -0.0954088 -0.0441858 -0.0429184 -0.0246598 0.018352 -0.0284997 0.094562 0.0541118 -0.0528427
you’re 0.0829284 0.0276359 0.0669176 0.0323292 0.00726225 -0.0614088 -0.0556329 0.0534161 -0.00439064 -0.017769 -0.00774427 -0.0533962 -0.0810607 -0.00590684 0.0564137 -0.0620005 -0.0142642 -0.00670606 0.0461378 -0.0550117 -0.0029539 -0.0245223 0.0551317 -0.0343863 -0.0510366 -0.00778537 0.0840049 -0.0593015 -0.0893769 0.0447556 0.0214627 -0.0843729 0.00368484 -0.0585672 -0.0597654 0.0284961 -0.0301191 -0.0239172 -0.0853553 0.0297323 0.0336876 -0.0285564 -0.0717244 0.0762931 0.0577251 0.0394793 -0.0412574 0.0188351 0.0383751 0.00768224 -0.00340657 0.0167473 -0.000329371 -0.0250953 -0.0304523 -0.0119637 -0.0216139 0.0787497 -0.0131892 -0.00431929 -0.0486443 0.0779259 0.0597489 0.0115285 -0.0471394 -0.0214533 0.0110751 -0.0265419 -0.084878 0.0373547 0.0323123 -0.0689642 0.0755505 -0.0140573 -0.0301614 0.0840317 0.0226446 -0.0432461 0.0160752 -0.0229328 -0.0892513 -0.0255074 -0.0185285 0.068436 -0.0924528 0.0539919 0.0488289 0.0613964 0.0380108 0.000192959 -0.0280698 0.0452341 0.0731005 0.0171668 -0.0335272 0.0917282 0.0708536 0.0696786 -0.0514006 -0.0383558
name -0.0452109 0.0609367 0.0474582 -0.0419899 0.0522747 -0.0129936 0.0460824 -0.0952321 -0.0809982 0.0796685 0.0743291 0.0514008 0.0166636 -0.0621563 -0.0613587 0.0558301 -0.0290403 0.0294944 0.0225896 0.0167848 -0.0193535 0.0523816 -0.0344036 -0.0352736 -0.0510596 -0.074448 -0.072293 -0.0567886 0.0721075 0.0522707 0.0874931 0.0842771 0.0163236 0.0393581 0.083866 -0.0192239 -0.05065 -0.0825079 0.0772013 0.061737 -0.085185 -0.058523 -0.0180106 -0.0733618 0.0228277 -0.0198827 0.047304 0.0422506 0.0652323 0.0590124 -0.0938955 0.0589561 0.0648499 -0.0676889 -0.0455932 0.0122298 -0.0518723 -0.0753837 0.0958718 -0.00542031 -0.0782844 0.0730024 -0.0359377 0.0266802 0.0354852 0.00395299 0.0513055 0.0117672 -0.0318949 -0.0785991 0.0851136 -0.00651318 -0.082206 -0.029369 0.036895 0.064812 0.0147568 0.0619077 0.034147 0.0702065 -0.0301187 0.0762674 0.0687684 -0.0828643 0.0234912 -0.039068 0.0494 0.0615206 -0.0521238 -0.00464032 0.0286131 0.023846 0.0203072 0.0362121 -0.00313532 -0.0950566 0.0495779 -0.00956941 -0.00210203 0.01855
‘without 0.0560011 0.0925961 -0.0603639 -0.0273876 -0.0198444 0.0472306 0.0751488 0.0374212 -0.0214161 0.0452524 0.0611707 -0.0622497 0.0735451 0.0128541 0.0903126 -0.0737975 -0.0445818 0.00547236 0.0198421 -0.0475647 -0.0412215 0.0512047 0.000899524 0.0577536 -0.0367259 0.0573358 -0.0530442 0.00242666 -0.0419669 -0.0118531 0.079987 0.0436845 -0.00516843 -0.0929073 -0.0725577 -0.0824035 -0.0696989 -0.0823239 0.00393903 0.00906955 -0.0409251 0.0661198 0.000392573 0.0630979 -0.0433151 0.0383276 -0.0847852 0.0106862 -0.0831215 -0.059625 -0.0436971 -0.00693268 -0.055675 -0.0159683 -0.0518936 0.0869369 -0.0761614 0.0378472 -0.00856717 0.0865116 -0.00450371 0.0367078 0.0699434 0.0545267 -0.0190603 -0.078726 -0.0855436 0.0397824 0.064443 0.0599743 -0.0717721 0.038149 -0.0457859 0.0437928 0.00267064 -0.0184587 -0.088283 0.0188605 0.0350963 -0.0898484 -0.0614914 -0.0831699 0.00479389 -0.071091 -0.0268042 -0.0840075 -0.0617231 0.048435 0.0705034 -0.083606 0.0831047 0.0361907 0.04553 -0.0801086 0.0917786 -0.0735998 -0.0680877 -0.0349334 0.0703944 -0.00548357
slowly 0.0141052 0.0189725 -0.0465941 -0.0663463 -0.0739408 0.0764518 -0.0354454 0.0544524 0.0484854 0.005808 -0.0073568 0.0114019 0.0835586 -0.0258197 0.0702762 0.0341529 -0.00875164 0.0581736 -0.0613292 0.0165691 -0.00328844 -0.0693333 -0.000230012 -0.083741 0.0190347 -0.0147022 -0.043983 0.0418925 -0.0394475 -0.0930857 -0.0517472 0.0366981 -0.0687626 -0.0430299 -0.0627363 -0.036704 -0.0725689 0.069794 -0.0174174 0.0847366 -0.0160444 -0.0255377 -0.0543712 0.081452 -0.0363065 -0.0210269 -0.0753319 0.0444923 -0.056495 0.0246578 -0.0643146 0.0748693 0.0952255 0.0480137 0.0614592 -0.0439878 -0.0262738 0.0926516 0.0648627 0.0780135 -0.0276798 0.0745622 -0.0751393 0.0640353 -0.0342584 -0.00634468 -0.0489798 -0.0460987 -0.0317307 -0.0832285 0.0547514 0.0416073 -0.0710282 -0.083826 0.0617622 0.0737923 -0.0394432 -0.00589217 -0.0906308 0.0282172 0.0256121 -0.0892455 0.0842329 -0.0141458 0.00170436 -0.0471115 -0.0905084 0.065228 -0.0152053 -0.075179 0.00218561 0.0799239 -0.0756039 -0.00516345 0.0686733 0.0170823 -0.0782884 0.0298483 0.0305463 0.0191206
“poison” 0.0543035 -0.0860566 -0.0552803 -0.0124296 0.0753767 -0.0132214 0.0711276 -0.0646442 -0.0243253 0.0209204 0.079599 -0.0646389 0.072097 0.0554122 0.0777307 0.0758279 -0.0728748 0.0552703 0.0660322 -0.0338751 0.00831135 -0.0721571 -0.092692 -0.0735554 0.0761249 -0.0498286 0.0817169 -0.0613172 0.0955315 -0.00803134 -0.0539888 -0.0653396 0.00901989 -0.0588423 0.0780388 -0.0720299 0.0141338 0.0271429 -0.0289079 0.0154379 0.0877101 0.0391573 0.0685143 0.0796332 0.0808224 -0.0101548 -0.0125186 0.032481 0.0430124 -0.0646666 -0.0602582 0.0289267 0.0384906 -0.0182098 -0.00415919 -0.0586853 0.057931 -0.0315428 -0.0370248 0.0201974 0.0915015 0.0571144 0.0256187 0.0526192 0.00398813 -0.0579758 0.0211124 -0.0497229 0.0343393 -0.0554546 0.0741352 -0.0141306 0.0435972 0.0244821 -0.0285523 -0.020741 -0.0628288 0.00184376 -0.0900507 0.0905333 0.04349 -0.0338711 -0.00756203 -0.0771983 0.000640744 -0.0832791 -0.0913229 -0.0830464 -0.00654367 0.0418151 -0.0867932 0.0880408 0.0605761 0.0948225 -0.020413 -0.0019368 -0.0739468 -0.00682175 -0.0419997 -0.0663979
golden -0.0742044 0.0185551 0.0438844 0.0833479 -0.0629716 -0.0815625 0.0551532 0.0174074 0.0668434 0.0176506 0.0804116 -0.0870957 -0.0832654 0.0722272 -0.00168499 0.00937432 -0.0148576 -0.0724223 -0.0396696 0.0220648 0.0645832 0.0210563 0.0276908 0.0950567 0.0644538 0.00182735 0.067934 0.078576 -0.02837 -0.0259605 0.0869561 -0.0513779 -0.034054 0.035719 -0.0293633 -0.0461843 -0.0336305 -0.0530417 -0.0109078 -0.065969 0.047976 0.0176266 0.0493148 0.0597243 0.0484843 -0.0611937 -0.0295801 -0.0645238 0.0905409 0.0114365 -0.0570263 0.0329035 0.0564075 -0.0325229 -0.00085968 0.0674428 0.0912105 -0.0501104 -0.0702555 -0.06779 -0.0243083 0.0639028 -0.092858 -0.0736724 0.073891 -0.071897 -0.0595016 -0.0833661 -0.0229031 -0.0337737 -0.0209711 0.061198 -0.0833994 0.00220357 -0.0190646 0.0710547 -0.041433 -0.0156364 0.0637295 -0.0811004 0.0814571 0.0814714 -0.0468168 0.0946022 0.0462087 -0.00374206 -0.0733327 0.0591141 0.0442481 0.0986025 0.0591004 -0.0624622 0.0657009 0.0841937 0.0981914 -0.0617611 -0.0453478 -0.0740572 -0.0584778 -0.0508051
2008 0.0612119 -0.0327538 0.0895998 -0.0834551 -0.00870486 -0.0694427 0.0241334 -0.0218742 0.0528959 -0.0814893 -0.00285738 -0.0505534 0.0182922 0.0610928 0.0021224 0.00641009 -0.0517855 0.0207465 -0.00283911 -0.0795716 -0.0464275 0.0781121 0.0491069 -0.0840974 -0.0791928 -0.0179708 0.0860674 0.0507902 0.0422655 0.030364 0.0127822 0.0634013 -0.0194635 -0.0214543 -0.0158862 -0.0905532 -0.0348666 -0.0844897 0.0471942 0.0293808 0.0200031 -0.0309281 0.0623786 -0.0506358 -0.0439215 0.0185682 -0.0180931 -0.0736128 0.0132639 -0.0569235 -0.0179654 -0.0673341 -0.00931435 0.00105769 0.061173 0.0862454 -0.0031379 0.0660696 0.0670108 -0.0420656 0.0315169 0.0455157 0.038512 -0.015627 -0.0642917 0.06498 0.0488359 0.078153 0.0460483 -0.0703643 -0.0200293 0.0339017 0.0872754 0.0419521 -0.0628901 0.027816 -0.0825106 0.00940812 0.0415953 -0.0699763 0.000885132 0.0204009 -0.057648 -0.0875913 -0.00718395 0.0583141 0.0714416 0.0287201 -0.0538143 0.0269748 0.0326502 -0.0645853 -0.0579847 0.0362344 0.0739935 -0.0197645 0.0569585 0.0155005 0.0935181 -0.0306751
hole -0.0325957 -0.0613437 -0.0436772 -0.0702756 0.0545537 -0.0149875 -0.0932309 -0.0157051 -0.0212712 0.0171713 0.0687331 0.0469948 0.030891 -0.0687462 0.0599798 0.040611 0.0998175 -0.0648774 -0.0622333 0.00500692 0.0404914 0.0507401 0.0264837 -0.0247776 -0.0449216 0.0315174 -0.0287321 0.000981375 -0.0777702 -0.0201208 -0.0213569 0.0213608 0.0119369 0.062704 0.0256043 0.0421975 0.0662411 0.0625015 0.0361492 -0.00673684 -0.0221267 0.0803523 -0.0927922 -0.0255109 -0.0169418 -0.0692608 -0.0731637 -0.0599492 0.0632972 0.0139051 0.00583529 -0.00369658 -0.0438953 -0.0386155 -0.102421 0.0260353 -0.0141445 0.0630361 0.0386618 0.059181 0.0152553 0.00692588 -0.0447772 0.0957541 0.0460621 -0.0316938 0.0020612 -0.0388636 0.0798026 -0.0451767 0.0115655 -0.0570977 0.00133546 0.0658818 -0.0530211 -0.0894879 0.0794243 -0.0184425 -0.0046005 0.0312739 -0.0600301 0.0611156 0.0185838 -0.0246462 -0.0813912 0.0138506 -0.011785 0.0363394 0.00405545 -0.00546329 -0.0238259 0.0872993 8.7024e-05 0.0866512 0.0678676 0.0178312 -0.0653514 0.0291899 0.0812981 -0.0614468
hung 0.0284744 0.0288986 -0.0352053 -0.08973 -0.00444557 -0.0844086 -0.0746721 0.0618603 0.00704861 0.0470432 0.0305842 0.00541353 0.0723486 0.00967336 0.0163199 0.0249971 0.0319276 -0.039913 0.024262 -0.0869533 0.0810138 0.0750882 -0.00883252 0.0228993 -0.0785386 0.0713859 -0.0579306 -0.0810618 0.0502514 0.0789451 -0.080214 0.029809 0.0752006 0.0643624 0.0657558 -0.00106105 -0.087124 -0.000731243 -0.0757966 0.0776512 0.0118864 -0.0800117 -0.0317561 0.0669884 -0.0379104 -0.0612739 -0.0445388 -0.0959054 -0.0823303 0.0887585 0.0273073 0.0422699 0.0379659 0.0775885 -0.00442776 -0.00234634 0.0742172 -0.0176178 -0.0506236 0.0453426 -0.0320127 -0.0886236 -0.0290505 0.050526 0.00409888 0.0750851 -0.0821536 -0.0856073 0.0450761 0.0575795 -0.0154204 0.0287178 0.0269541 -0.0112539 -0.022568 0.00245823 -0.0661681 0.00100388 -0.00128658 -0.00471093 -0.0900305 -0.0457873 0.072357 -0.0297547 0.0440136 -0.0448017 0.0341541 0.0852148 0.0163638 -0.0503802 -0.0733867 -0.0360416 0.065789 0.0340006 -0.0720952 -0.0643793 0.0851417 -0.000119454 -0.0608741 -0.0942478
feet 0.048916 -0.0190316 -0.0387664 0.0145015 -0.0708214 0.0213619 0.0484309 0.0310877 -0.0777541 -0.0166688 0.0166487 0.0719748 0.0923485 -0.0898963 0.0640137 0.00357245 0.068584 0.0397119 -0.00289548 0.0674185 -0.036962 0.0590731 0.0856573 -0.047561 -0.0502101 -0.00324821 0.0128641 0.0788389 -0.0751681 -0.0306346 -0.0924148 -0.00700198 0.0191783 -0.0643247 0.0421119 -0.0572195 -0.0184783 0.0854889 -0.0921076 0.0983583 -0.062348 0.0336508 0.0773978 0.081993 0.0127176 -0.0538523 -0.0506241 0.0757834 0.00461854 -0.0454676 -0.091155 -0.0882116 -0.0976566 -0.0268367 0.0605458 0.0447289 0.0449383 -0.0426676 -0.0205238 0.0884506 0.0737017 -0.0404647 -0.0271446 0.0162851 0.0288955 0.0392194 0.0317445 -0.0761619 0.0480204 -0.0374808 -0.0263379 -0.0650139 0.0464309 -0.0337119 0.0489297 -0.00792877 0.0620177 0.0574555 -0.0565971 -0.0307643 0.0664044 -0.0724817 0.0550773 0.0474645 0.0573019 0.0393613 0.00835218 0.022961 -0.0015985 -0.0501019 0.0752809 -0.0588363 -0.0164944 -0.0423327 -0.0661359 0.070197 0.0654316 -0.0768505 -0.0999752 0.0942529
coming -0.0724521 -0.0907183 -0.0761586 0.067165 -0.0626733 -0.0777036 0.0770786 0.0792811 0.0118514 -0.0768484 -0.0288148 0.0532991 0.0589172 0.0197535 0.0526111 0.0862161 -0.061137 -0.0894693 0.0589489 0.00639256 -0.0717695 -0.0168664 0.0118774 0.0339957 -0.0794275 -0.0365373 0.0477055 0.0596972 -0.0866563 0.0537416 -0.0761587 -0.0440628 0.0393392 0.0523604 -0.00502306 -0.00202439 -0.0499724 -0.00464944 -0.00386567 0.00761057 -0.023436 0.0498374 0.0246833 -0.0782407 0.0826829 -0.0387723 0.0333149 -0.0384351 -0.0892639 0.0379589 -0.0805947 0.0307787 0.0636526 0.0413234 0.0103621 0.0853775 0.0874756 0.0965172 0.0781774 -0.0199344 0.0489742 0.0249982 0.0939932 -0.0781386 -0.0667912 0.0286868 -0.072572 -0.0106237 0.0396101 -0.0127334 0.0316516 0.0967236 -0.0497831 -0.0872489 -0.0437373 -0.0328595 -0.00668752 0.0256628 -0.0643358 0.0519448 -0.0193003 0.0426692 -0.00174305 0.0776757 0.0185732 0.0824334 0.0554621 0.0344448 0.0428169 -0.0743121 0.0406162 -0.0746665 0.0236489 -0.00777597 0.0321486 0.0108895 0.0934197 -0.0521686 0.0433983 -0.0661148
cupboards -0.0823025 -0.00424175 0.00359254 -0.0129435 -0.0260857 0.0235903 0.045337 0.0108377 0.0190292 -0.0239336 -0.0503308 -0.0715489 0.015361 0.0250126 -0.0570839 -0.00486728 0.0413585 -0.0880776 0.0233083 0.0478998 0.0640051 -0.069568 -0.0814315 0.00291486 0.0391784 0.0720195 -0.0660151 0.000402782 0.0430898 -0.0188769 0.0194751 0.0605634 -0.00725025 0.00238621 -0.0791022 -0.0269225 -0.0307671 0.0601455 -0.0743486 -0.0532486 0.023863 -0.0258064 0.0294423 -0.022415 -0.00972714 -0.0487813 -0.0270469 0.0583887 -0.0373019 -0.074512 0.0226537 0.0371181 -0.0897272 -0.0173985 -0.0460387 -0.0173748 -0.016505 0.017687 -0.0878017 0.0757424 0.011368 0.0577808 0.0260213 -0.0971652 0.0484456 -0.033409 -0.0899931 0.0906109 -0.0791549 0.0530099 -0.0781591 -0.0586439 0.057177 0.0132269 -0.0370805 -0.0634075 0.0666995 0.00351026 -0.100068 0.0938185 -0.0365367 -0.0807268 -0.0325126 0.0119679 -0.038301 0.075712 -0.030381 -0.0565256 0.0126721 0.0522393 -0.0613569 0.0645009 -0.053276 -0.0627876 0.0439696 0.0388803 -0.025114 -0.090918 0.0633245 -0.0417092
dozing -0.0450285 -0.07473 0.0850792 0.0476173 0.0536764 -0.0295336 -0.0778818 0.0279688 0.0279413 0.0127913 0.079089 -0.0650018 0.0559793 0.0610927 0.00973735 -0.0843153 0.0156806 0.0403204 -0.0400379 0.064161 0.0885604 0.0463471 -0.0251984 0.0117401 0.0859026 0.0316728 -0.0805337 0.000175493 0.0457661 0.0802656 -0.0897031 -0.0570948 0.0352581 0.0847768 -0.00444008 -0.0270231 0.037508 -0.0257717 0.0522718 -0.0719802 -0.0665853 0.0086728 0.00602549 0.0857567 -0.0545954 -0.0696387 -0.0689805 -0.027946 -0.0379145 0.091261 0.0430106 -0.0842182 -0.0961362 -0.0839588 0.0127869 0.00991955 0.0294608 0.0836117 0.0792708 0.00743812 0.00353233 -0.034597 -0.0371421 -0.0636437 -0.0519327 -0.0525881 0.0115264 0.0702839 0.0636854 0.0843899 0.0924783 0.0499174 -0.0563796 0.0493669 0.0115064 0.0642276 0.0917674 0.0101757 -0.0644485 0.0123567 0.0857025 0.0601838 -0.0124952 -0.0442995 0.0626456 -0.0221936 0.0792302 -0.0870335 0.0710127 0.0607691 0.0854691 -0.005005 -0.0101045 0.0934561 0.0782904 0.070552 0.00694125 -0.0607184 0.0772747 0.0040503
never -0.0160618 -0.0779328 -0.00226002 0.0553806 0.0598473 -0.0539044 -0.0551905 -0.0630855 -0.026949 -0.000399665 0.0497413 -0.0153917 0.0764492 -0.0695434 0.0826017 0.0436815 -0.0470676 -0.0633387 0.0483425 0.00607306 -0.0221473 -0.0878976 0.0170731 -0.0487444 -0.0133324 0.0729648 -0.0315178 -0.103117 0.08873 -0.0411135 0.0233529 -0.0125479 0.0504861 0.100428 -0.0429434 0.000835445 0.015139 -0.0730267 -0.0558737 -0.0694197 0.0383157 0.0705409 -0.0348504 0.0417673 0.0448681 -0.085147 -0.0737511 0.0330407 -0.0181981 -0.0157301 -0.0385579 -0.00601964 -0.0520615 0.0728777 -0.0549912 -0.098162 -0.052376 -0.00626007 -0.0741159 -0.0469094 -0.0185191 -0.0124704 0.00803427 0.0200864 0.0070406 0.0682629 -0.0461872 0.0380616 -0.0831288 -0.079586 -0.0804813 -0.01382 -0.0714268 -0.03252 0.0114822 -0.0493867 -0.0763449 0.020779 0.0187028 0.0652668 -0.0979479 0.0725538 -0.0655816 0.0774866 0.0636966 -0.0667443 -0.0178758 -0.0780217 0.0567226 -0.0325441 -0.0176036 0.0941525 -0.0736487 0.0447836 -0.08054 -0.0052207 0.0620957 0.0230526 -0.0578075 -0.0864452
day 0.00249198 0.0271274 -0.0462777 -0.0917206 0.0215079 0.0434315 -0.0127383 -0.0615353 -0.0666768 0.0766404 0.0194459 -0.0159129 0.0789295 -0.0805783 0.0380998 0.0803228 0.0130602 -0.0378342 0.00693423 0.0940747 0.0700834 0.0550088 -0.0323521 0.0700798 0.042451 -0.0228171 0.0787742 0.0310701 0.0947729 0.0426503 -0.0620514 -0.0243825 0.0408687 -0.0711108 -0.0246486 -0.0656335 -0.0610251 0.0295025 0.079181 0.035667 -0.0127558 0.0765731 0.0671701 -0.0534968 -0.0489673 0.052799 -0.071985 0.0366333 0.0765708 -0.0482665 0.0796373 -0.0628359 0.0787135 -0.0393613 0.0765757 0.011804 0.0416121 0.0774772 0.0599697 -0.0514777 -0.0267686 0.0309031 0.067456 0.0694224 -0.0413208 0.0456333 -0.00992537 -0.0779957 -0.0340679 0.081753 -0.0808122 0.0671909 0.0617136 0.0320134 -0.011508 0.0387778 -0.0191677 0.0215398 -0.0554018 -0.0627854 0.0293044 0.0183626 -0.0792423 0.00471142 -0.0229649 0.0801944 0.0272775 0.0678308 0.0436674 -0.0203291 -0.0546909 0.0280167 0.0538352 -0.0249844 -0.0639882 -0.0629499 0.0609043 0.0151311 -0.0669582 0.087917
close -0.0731186 0.0202929 -0.0535003 -0.0264368 -0.0748718 -0.0708474 0.0405774 -0.079399 -0.0495478 0.0566675 0.0646632 -0.034755 0.0983969 -0.0327995 -0.0441818 0.0141843 -0.052889 0.0650852 -0.0598727 0.0303062 0.016351 -0.0137769 0.0173234 -0.0937501 0.0483587 0.00431218 -0.0703622 -0.0274796 0.0105067 -0.0458572 0.0261313 -0.0187013 0.0813017 -0.039278 0.0763283 0.00957416 0.0061953 0.0913495 -0.0599633 0.0317863 0.0898886 0.0708074 0.0337774 0.00934084 0.0272476 -0.0909225 -0.044836 -0.00467212 -0.0924627 0.0469938 0.0563463 0.00585403 -0.0608095 -0.0763478 -0.0112634 0.0238901 0.0195347 0.00435673 0.048538 0.015901 -0.0688727 0.0828015 -0.0317909 0.0414969 0.0868501 -0.00638183 -0.0342239 -0.0744976 -0.0603581 -0.0899342 0.0651104 -0.0715709 0.0110275 -0.0191908 -0.031727 0.0687901 -0.0816229 0.0569236 0.00120834 -0.0710213 0.0194603 -0.0948528 -0.0362156 0.0430363 -0.00675092 -0.0116319 -0.0154495 -0.0586757 0.00326133 0.0793576 -0.0917008 0.0252535 0.0340828 0.0782183 -0.00517145 0.0887041 0.0206847 0.0194652 0.0291285 -0.0866767
sister 0.0209877 0.0199929 -0.072112 0.0426152 0.0324533 -0.0996105 -0.0828238 -0.0471328 -0.0258057 0.0661898 -0.059094 -0.0360541 -0.0146322 -0.00319055 0.0402183 0.0403333 0.0730527 -0.0688311 0.027065 -0.0817353 0.029963 -0.0496417 -0.0591967 -0.0913907 0.00871419 -0.0830852 -0.0874996 0.0142717 0.0834713 -0.065987 0.0746992 -0.000937527 0.0905035 0.0477478 -0.00523501 -0.011901 0.045344 -0.08393 -0.0798022 0.0223163 -0.00108184 -0.0614294 0.022508 0.00513761 0.00189104 0.0907311 -0.0276367 -0.0435809 -0.0840199 -0.0235581 -0.0104952 -0.0145179 0.060988 0.0167114 0.0125798 -0.0394309 0.0137147 -0.0263449 0.00865536 0.0359729 0.0565679 0.0590021 0.0195136 -0.0100414 0.0485118 -0.0227631 0.00519794 0.0234081 0.0778235 0.0296813 0.0473681 0.0186179 -0.0983365 -0.0652344 -0.0690909 0.0864634 -0.0634595 -0.0848671 0.0552645 0.0669756 -0.0023926 -0.0549059 -0.0874178 0.0703387 0.0584899 -0.0809546 -0.0718411 -0.0856742 0.0719452 -0.00373709 0.0224286 -0.0792366 -0.0843753 0.043753 -0.0688544 -0.057618 0.0324257 0.0316419 0.0365173 -0.00294687
ought 0.0831342 0.0409864 0.0199894 0.0401663 -0.0273187 0.00424542 0.000415389 -0.0421469 0.0707893 0.0644717 -0.00158047 0.0428248 0.046367 0.0628011 0.0252148 -0.0411133 0.0820239 -0.0213439 -0.0746847 -0.0857061 0.059141 -0.0167488 -0.01436 0.0105853 -0.0634532 0.0790948 0.0766861 -0.0683857 -0.070338 -0.0102544 -0.0903943 -0.0954544 0.0966083 -0.0321137 0.0785935 -0.04257 0.0691324 -0.0316195 -0.0542298 -0.0811684 0.07294 0.0315084 0.0756778 -0.00547567 0.0124813 0.0384236 0.0559011 -0.0582603 -0.0672852 0.0229441 -0.0272629 -0.0737942 -0.0221079 -0.0612863 0.0384631 -0.0579642 -0.00218162 -0.0495634 0.049094 -0.0328749 0.0635232 -0.00483423 0.036482 0.0687161 -0.0789062 0.0206406 -0.0624119 0.0829526 -0.0816217 0.027827 -0.0644839 -0.0219752 0.00254424 -0.0511348 -0.045932 0.0585042 0.0147768 -0.0635501 0.0583048 -0.0856439 -0.0752981 -0.0786852 0.0672774 0.0721642 0.0872937 -0.0264135 0.0878883 0.0254936 -0.0397708 0.0656905 -0.0294807 -0.0438992 0.0798527 0.0694514 -0.0842417 0.00743602 0.0412382 -0.0904957 0.0572399 0.00740853
hanging -0.0855176 -0.00973748 0.0159412 -0.00515175 -0.0901398 -0.0168982 -0.0798128 -0.0228446 0.0183996 0.0218846 -0.0907604 0.0329171 0.0381325 -0.0135847 0.0538256 -0.0540686 -0.0400366 -0.0250802 -0.0631482 -0.00422565 -0.0509826 -0.0465972 0.00143915 -0.0139251 -0.0486665 0.081101 0.0800834 -0.0692596 -0.0391851 0.0840172 0.06511 0.0878451 -0.0831078 0.0580872 -0.0800069 0.0824758 -0.0847508 0.0130702 0.0466086 0.00628776 0.0368644 -0.0167792 -0.0408551 -0.093475 0.0392662 0.088675 0.0405509 -0.0391208 -0.0298745 -0.0502421 -0.025639 -0.0780692 0.0006609 -0.0956017 0.0101029 -0.0879471 -0.0834152 0.0194011 -0.0722077 0.0203582 -0.0147913 -0.0696316 -0.0347881 0.0483524 0.0488489 0.0343439 0.0608725 -0.0676445 -0.000701433 0.0685766 0.0431491 -0.0270052 0.0101975 -0.0570357 0.0798876 -0.0333557 -0.0427295 -0.0345132 0.00338296 0.0237163 0.0477755 0.0659586 -0.0836758 0.0724589 0.0305607 0.0930359 -0.048156 -0.0134589 -0.0758884 0.0225209 -0.0916821 -0.0193739 -0.0498102 0.0267515 -0.0607574 0.0510928 0.0916036 -0.0787872 -0.0447684 -0.0349473
reading 0.0426438 -0.0611372 -0.0369207 -0.0794701 -0.0564068 -0.0280033 0.069247 0.0812174 -0.0733352 0.0912004 0.0331908 -0.0768868 -0.0304183 -0.0138122 -0.083833 -0.0499651 -0.0293143 0.0745866 -0.0463538 -0.0310366 0.0780224 -0.0390817 0.0747529 -0.047516 -0.0538518 -0.0402374 0.0771381 -0.0592687 0.0848093 -0.0396088 -0.0763336 -0.0594449 0.0516033 -0.0367433 0.0377525 -0.0414043 0.043627 -0.0154245 0.0240337 0.090052 -0.030913 -0.0455845 -0.0542903 -0.083567 -0.0178694 0.0790037 0.0326521 0.0737563 -0.0480342 -0.0601516 -0.00477301 -0.0639684 -0.025911 -0.0464489 0.0284311 -0.0562059 0.0579944 0.0498229 -0.0651841 0.0678091 -0.0703902 0.0795447 0.0119855 0.0524614 -0.0264139 0.0836943 0.0604635 -0.0799568 0.0586346 -0.00344128 -0.0646451 -0.0375311 -0.0923736 -0.0204681 0.0825705 -0.0882764 -0.0390593 -0.0735062 -0.00694388 0.0507189 0.068088 0.00560198 -0.011873 0.0738848 -0.0326232 0.0611867 -0.0446136 0.0197371 -0.0833305 -0.0726898 0.0870385 0.0874416 0.00989302 0.0207119 -0.0151661 0.0493755 -0.016753 0.0894097 0.0804329 -0.0541388
another 0.0331526 -0.0842137 0.0471479 0.0856943 -0.0232778 -0.0384445 -0.0231398 -0.0086061 -0.00812102 -0.0227325 -0.0256181 -0.0355504 0.0182611 0.0112543 -0.0685324 -0.0452478 0.0791861 -0.037956 0.103662 -0.0868512 0.0701643 0.00661957 -0.0785999 0.0538287 0.0160294 0.0646844 0.0720815 -0.0107725 -0.0669957 0.00127608 0.00304311 0.0553881 0.0272603 -0.0145225 0.0654379 -0.0745121 -0.021202 -0.0854386 -0.0486295 -0.015794 -0.0294937 -0.0551615 -0.060519 0.0388657 0.0403326 -0.0476051 -0.0429452 0.0734062 -0.0363927 -0.0116327 0.040435 -0.00731073 -0.0136641 -0.0126154 0.0224237 0.00697674 0.0657826 -0.0864827 0.0735566 -0.0744329 -0.0400015 -0.0298909 -0.0438632 0.0249959 0.0371556 0.022171 -0.00556091 0.0480268 0.0829558 0.0538327 0.0663494 -0.0348373 0.0645967 -0.0817947 -0.0778016 -0.0512797 -0.0893628 -0.0158382 -0.0327879 -0.060161 -0.0266329 -0.0263487 0.0118944 -0.0304884 0.00638686 0.0123066 -0.0540802 -0.0843995 0.0787383 -0.0272654 -0.0270258 -0.0700962 0.0147895 -0.0788309 0.0654775 -0.0308422 -0.0630751 0.0526936 -0.0863993 -0.0397557
across 0.0542813 0.0272733 0.0831259 0.0351583 0.0557149 -0.00745481 -0.0847842 0.059478 0.0110775 -0.088134 -0.0390961 0.0757222 -0.0468175 -0.0490635 -0.0128464 -0.0361326 -0.0655935 -0.0859073 0.0373242 -0.0875454 0.0959277 0.0495409 0.0415233 -0.0175374 0.0700981 0.0502256 0.0176769 -0.0905399 0.0500997 -0.0326139 -0.0638942 0.0240655 -0.0625201 -0.072146 -0.0669431 0.0162804 -0.0272386 0.081888 0.0306243 0.0542835 0.00611699 0.00173229 0.0575239 0.0439931 0.0408083 -0.0704877 -0.0141195 -0.00974922 -0.038226 0.0896034 -0.0776383 -0.0394912 -0.054244 0.0875201 -0.0873121 -0.0564495 0.0977488 0.0046054 2.28627e-05 0.0656883 -0.0136628 -0.0732918 0.0902719 0.0444803 -0.0798308 -0.0446453 0.0284054 -0.00327649 -0.00615025 -0.0378376 0.0838233 -0.0123985 -0.0210647 0.0888521 -0.00741486 -0.037482 -0.0691873 0.0917699 -0.0771151 -0.0399474 0.0309786 0.0726467 -0.0508047 0.02909 -0.0104002 -0.0597435 0.0361546 -0.0533251 0.00271134 -0.0786257 -0.00805761 0.0601921 0.0560545 0.0234759 -0.0996908 0.0454126 0.0370611 0.0223951 0.0571055 0.0676
even 0.0922125 0.00989801 0.0172874 -0.0499273 0.00337853 0.0528964 -0.100315 0.0592512 0.00445544 0.0329619 0.0528376 0.00383037 -0.0841475 -0.0470328 -0.0567723 0.0788272 0.0901769 -0.0262952 -0.0705028 -0.0431618 0.0459591 0.0859933 -0.0109386 0.0614071 -0.0561645 -0.0926647 -0.00105639 -0.0176293 -0.0122116 -0.0264856 9.43507e-05 -0.0209602 -0.0450199 0.0101614 0.05286 -0.07072 0.0014138 -0.0418363 0.0522822 -0.0451942 -0.0637116 -0.060029 -0.0749522 0.00754154 0.00592027 0.0446938 -0.0258569 0.0448977 0.0775184 -0.0623858 0.0565211 -0.00302868 -0.0189746 -0.0714445 0.00430995 -0.0859962 0.0127321 0.0512255 -0.0650227 -0.0863936 0.0735935 -0.0455288 -0.0952123 0.0144577 0.00890045 -0.00621241 -0.00179003 0.0897017 -0.000752469 -0.0418064 0.0858198 0.0273698 -0.00504156 0.0844058 0.0902769 -0.0471686 0.0191086 0.0145006 0.104682 0.0788232 0.0835755 0.0844281 0.0274391 0.0793932 0.027053 0.0189506 -0.0543801 -0.0895016 -0.0435676 -0.0590368 0.0858359 0.036018 0.0251226 -0.068917 0.0759796 -0.0525123 -0.0160217 0.0773113 0.0375854 0.0263111
next 0.0662582 -0.0260464 -0.0139375 0.0187296 -0.0729385 -0.0536999 0.0347531 -0.0105004 0.044005 0.0758433 0.0323495 -0.0531053 -0.0793899 0.0358869 -0.00875711 -0.0923221 0.0116273 -0.0852993 -0.0399022 0.0139293 0.0184765 -0.0648628 -0.080286 0.00227486 -0.0680772 -0.0428183 0.0137728 -0.033111 -0.0535574 -0.0848085 0.0283897 -0.0447006 -0.0446712 -0.0634813 0.0583872 -0.0583609 -0.0592388 0.0831422 0.0159122 -0.0804085 0.0729066 -0.0478676 0.0494555 0.0511075 0.0750944 -0.0940441 -0.0903535 -0.00459483 0.0353588 0.0438883 0.0921524 -0.045086 -0.00432714 -0.0763583 -0.084984 -0.0516597 0.0852771 -0.0372254 0.0945766 -0.0965978 0.0554156 0.0225707 0.0329318 -0.0684576 0.0131038 0.0554557 -0.0103422 -0.0186942 -0.00332869 0.00464192 0.0624401 0.0403447 0.0634845 0.0631454 0.00490298 -0.00418456 9.98627e-05 -0.0341543 -0.0226662 -0.00671328 -0.081873 0.0538809 -0.0804313 0.0414909 0.0691082 -0.0885457 0.0927906 0.0412454 -0.0205377 -0.00772649 -0.000975941 0.072117 0.0899059 -0.0507645 -0.0595707 0.0268722 -0.0654435 -0.0771221 0.0420673 0.0826703
conversations 0.061849 0.0487071 0.0520924 0.0675397 -0.0588747 -0.0255658 -0.0922476 0.00628514 0.0242541 0.0293102 0.0843395 -0.00549409 0.0289123 -0.041147 -0.0702196 0.00651137 -0.000449329 -0.0327495 -0.0225094 0.08328 0.00571308 0.0591375 -0.00554305 0.0257994 0.0230398 -0.0770417 0.0262151 0.0727876 0.0217701 -0.0775583 -0.0511382 0.0405206 0.0151816 0.0164428 -0.0777303 -0.0399988 -0.0195926 -0.0421151 0.0809873 -0.0556568 -0.0728705 0.0309833 -0.0111301 0.049845 0.0687139 0.0757094 0.0541362 -0.0503179 -0.0474027 0.0355339 -0.0483858 -0.0190383 0.0221016 -0.051857 0.0568219 0.0169049 -0.0620114 0.0553557 -0.00493743 0.08869 0.0486216 0.0129061 0.0250898 0.00759109 0.0601907 -0.0647498 -0.084345 -0.0413555 -0.064926 -0.0230769 0.0323128 0.0897846 -0.0221786 0.036617 0.0829786 0.00320189 0.075147 0.0185349 0.0803348 0.0865354 -0.0298693 0.0468191 0.0267425 -0.00793923 -0.0607474 0.0289978 -0.0328406 0.0392708 0.0196283 0.0585437 -0.0304754 0.0577693 -0.052486 0.0143076 0.0885165 -0.0527963 0.0486316 0.00633831 0.0403513 -0.00826373
as -0.0313729 -0.0461306 -0.0583029 -0.0514907 -0.0344924 -0.0274532 -0.0567677 0.0248257 0.0668444 -0.0670922 0.0313446 -0.0044696 0.0579655 0.104258 -0.0860974 -0.0174885 -0.0694508 0.0298472 -0.0830221 -0.0941152 -0.0401005 -0.0252354 -0.00678353 -0.0482681 -0.0530772 0.0303973 0.0653212 0.0142421 -0.109028 0.042274 0.00576413 -0.0299301 -0.0994687 0.0791416 -0.0768506 0.0529699 -0.0192365 0.000102505 0.0122542 0.0441441 -0.101935 0.0619169 0.0128179 0.0646668 -0.0220113 -0.109838 -0.0613267 0.034673 -0.0271838 -0.0877694 -0.0234656 -0.0708694 0.0293152 0.0580129 -0.0873128 0.0128812 -0.0528801 -0.0126561 -0.0898874 -0.0866883 0.0990799 0.0303202 0.0341639 -0.0472015 -0.0125955 -0.0576608 -0.0903155 -0.0827059 -0.0235199 0.0613166 -0.100865 0.0585427 0.0446727 0.00797366 0.0739817 0.0200148 0.0794377 0.0859956 -0.0576146 0.0400339 0.00706381 0.0436914 0.0348046 -0.0907987 -0.00339425 -0.0310701 0.00456582 0.0120449 -0.0170975 0.0202668 -0.0524352 0.0408078 -0.07239 0.0450801 -0.0947374 -0.0230812 -0.0147901 -0.0976055 -0.0196338 0.0148425
disappointment 0.0742539 -0.0321289 -0.0136978 -0.0164328 -0.0220863 -0.0450628 0.0797118 -0.0398364 -0.0388581 -0.0193794 -0.0451637 -0.0541144 0.0959102 -0.00337824 0.0666342 -0.0810213 -0.0162791 -0.058471 0.02067 0.0939284 -0.0662547 0.0805294 0.00320376 -0.0617713 -0.0318732 0.00531084 -0.00211464 -0.0012087 0.0881128 0.00223112 -0.0177576 -0.0516952 -0.0312574 0.028242 -0.0315913 0.0276246 0.00503586 -0.0766696 0.030057 -0.0796574 0.00395067 0.0252096 -0.00994909 -0.0540106 0.0382372 0.0368969 -0.0362882 -0.0637497 0.0357371 0.0453204 0.00798493 0.0440523 0.0631803 0.0890414 -0.00186707 -0.0632957 -0.0610234 -0.078023 0.0377832 -0.0922324 -0.0370968 0.0291516 0.0836524 0.0957373 0.0502092 -0.03961 -0.0681102 0.075943 -0.0916111 -0.023318 -0.0374547 -0.0158581 -0.0580819 -0.00489409 -0.0576511 0.0577352 -0.0154678 -0.0113436 -0.00902975 -0.0898929 0.0320843 0.0469187 0.0738606 -0.050931 0.0165681 -0.0822499 -0.0409111 -0.0663326 0.0298584 0.0844266 0.035981 0.024509 -0.0403767 -0.0688098 -0.072051 -0.0779928 0.0335686 0.0896079 0.0351219 -0.067924
that’s -0.0229816 0.060579 0.0276433 0.0177226 -0.0523658 -0.0354221 -0.0207656 0.0674859 -0.0528801 -0.0545063 -0.0928903 0.022345 -0.0728162 0.00270914 -0.0501696 -0.000758516 -0.0137166 -0.0261926 0.0508768 0.0578389 0.00584582 -0.000659414 -0.021979 -0.0209501 -0.0793748 0.0735367 -0.0570117 0.0507828 0.0412789 0.0220953 -0.0296663 0.0078651 -0.0387396 0.0484391 -0.0601416 -0.00526026 0.054333 -0.000699818 -0.0705539 0.0823293 -0.0427477 -0.0557774 0.00666447 0.093448 -0.0376825 0.0497854 -0.097482 -0.0906004 0.0891792 0.0340408 0.0866573 0.0971287 0.0349379 -0.0541942 0.00217206 -0.00193179 -0.0780989 0.0680203 0.0497382 0.0467775 -0.00741446 -0.0366758 -0.00128795 -0.0580234 -0.0550683 -0.0305425 -0.0317414 -0.0309758 0.0211254 0.000608885 -0.0855661 0.0431903 -0.0193471 -0.0744955 0.02767 -0.0447207 0.0373315 -0.0574312 0.00427103 -0.0144935 -0.0779596 -0.0786803 -0.0980068 0.0692559 0.00939724 0.0888589 0.08525 -0.0363306 0.0125953 -0.0645189 0.00617598 -0.0741131 -0.0190599 0.00635909 0.0207996 -0.0761747 0.0276452 -0.0496973 0.088675 -0.00411161
﻿project -0.0887315 -0.0797907 0.00285986 -0.0337739 -0.0478997 0.0261794 0.0549343 -0.0350487 -0.0801622 0.0714484 0.0657902 0.0703362 -0.0821179 -0.00400861 0.0169422 -0.0254194 0.0845911 -0.0753588 -0.0457179 0.0378403 0.0292315 0.0766201 0.0928468 -0.0438948 -0.0831049 -0.0328353 -0.00392475 -0.0202002 -0.0545304 -0.0623876 -0.00550205 -0.0795157 -0.0843459 -0.0571825 -0.00893184 -0.0155025 -0.0533699 0.0596044 0.0363658 -0.062717 -0.0631535 -0.0860349 0.0406449 0.0858428 0.0838753 0.0649394 0.0329386 -0.069736 -0.0849526 0.0842757 0.076521 0.0196734 -0.0830963 -0.0210686 -0.0072821 -0.0870943 -0.0273012 -0.0652875 0.0640276 -0.0286998 -0.0487824 -0.0214585 0.0595359 0.0552477 0.0870496 -0.0818981 -0.0861972 0.0902656 -0.0031367 -0.0523812 -0.0630804 -0.0418632 0.0507754 0.0921454 0.0954122 0.00290758 -0.0760628 -0.00962953 0.0139443 0.0391006 0.0576773 0.0448586 0.0931657 -0.035049 -0.05903 0.0601241 -0.094865 -0.073 -0.0127682 -0.054938 -0.0577872 -0.0942303 0.0026774 0.0649529 -0.0511586 -0.0129627 0.0681805 0.0789446 -0.0133326 0.00473094
herself 0.0878173 0.0876557 -0.00521718 -0.0958826 -0.0165028 -0.00867921 -0.072213 -0.0413471 -0.0284214 0.0664437 -0.0211114 0.0228688 0.0717341 -0.0665209 -0.0405966 0.029004 -0.0039199 0.0118522 0.0788998 -0.0758869 -0.000882728 0.0821779 -0.0456157 -0.0186053 -0.0155565 -0.0244195 -0.0346819 0.0772047 0.0716004 0.0609358 -0.0263826 0.0588359 0.0138872 0.0363359 -0.0788339 0.102432 0.0414711 0.0236613 0.0780845 -0.0361306 0.0388854 0.0810323 0.0293083 -0.0670065 0.00818284 0.00728525 0.0511143 0.00366063 0.0497319 -0.0769958 0.0514113 0.0728303 0.0680208 0.0430131 0.0723189 -0.076797 0.0557904 -0.0673961 -0.085263 -0.0591425 0.0691146 0.0609644 0.017739 0.0609213 -0.0720133 -0.072709 0.00944834 0.071148 0.0602559 -0.0951893 0.0237565 0.090658 0.00171115 0.0751194 -0.0646333 -0.0620424 -0.0152462 0.0210439 0.0324437 -0.00694256 0.0273399 0.0722865 -0.051663 -0.0725239 -0.0685817 0.0564362 -0.0481177 -0.0804646 0.0496213 -0.0780123 -0.0690837 0.0353683 -0.0814373 -0.0368692 0.0426315 0.106007 0.0449568 -0.0421547 -0.00543541 -0.0435499
presently 0.0245535 -0.0488426 0.0443689 0.016756 -0.00515963 -0.0851394 -0.0865781 0.0759924 0.0568214 0.041367 0.0241243 -0.00298194 -0.03306 -0.0547654 -0.0123243 0.00944146 0.0346764 0.0622597 -0.00374135 -0.0475621 0.0598153 -0.0484299 0.0733355 -0.0573871 -0.0561805 0.0597333 -0.0253198 -0.0370504 0.00832627 0.0563747 0.00732961 -0.00177963 -0.0757095 0.0875665 0.0200509 0.0596916 -0.0326645 0.0563355 0.00322391 -0.00741686 0.040643 -0.0958102 0.0925697 -0.094931 0.0707739 0.0336487 -0.0955575 0.0639428 -0.0877955 -0.0784955 -0.00966088 0.0674858 0.0669688 -0.0475831 0.0318999 -0.0785154 0.00738166 -0.0787023 -0.0106355 -0.0103624 0.0437707 0.047705 0.0166926 -0.00376864 -0.0412531 0.0668936 -0.0794705 0.0309683 0.0111635 0.0868758 -0.0257625 0.0485839 0.0392176 0.0275936 -0.0567683 0.0127944 -0.0324489 -0.00570943 0.0652338 0.0205993 -0.0147754 0.071571 -0.0673113 0.0152656 0.0740766 0.0613664 -0.0684242 -0.0447021 -0.0139913 0.0468749 -0.00477264 0.0163778 0.0324948 0.00598682 -0.0400013 0.0405209 0.091792 0.041257 0.0900017 0.0472731
half -0.0928197 -0.029321 0.0458113 -0.0431121 -0.0675236 -0.0462158 -0.0418493 -0.0850714 -0.0514037 0.0533891 -0.040608 -0.0815793 0.0770806 0.0282597 -0.0133121 -0.0326911 0.0677616 -0.0456031 -0.00511865 -0.0278474 -0.0342593 -0.0133435 -0.0569981 -0.0835317 -0.0761817 0.0610611 0.0662026 0.0538645 0.0444776 -0.0939598 -0.0868218 0.0904746 -0.0677567 0.00855085 -0.0101771 -0.0470855 0.0578726 -0.0167428 -0.0603916 0.00588369 -0.0204713 0.0144228 -0.00433438 0.0779443 -0.0558199 0.0410229 -0.0926573 0.0514878 -0.0171039 -0.0794381 -0.0611288 0.0122243 0.0803616 -0.00753139 0.0369712 0.00489885 -0.0793395 0.0234714 -0.0137015 0.0115018 0.00382032 -0.00301027 0.0421019 -0.0295181 -0.0774159 -0.0722069 -0.0517784 0.0897336 -0.0870104 0.0855918 0.0426847 0.0871595 0.064046 -0.0787155 -0.0833506 -0.0843459 0.0109445 0.0102229 -0.0344918 -0.0577527 0.0767463 0.0922227 -0.0766713 -0.0765896 -0.0316277 0.0597896 -0.0215779 0.0585477 0.0771032 0.0191345 -0.0701681 -0.0522514 0.0259071 -0.0468229 0.0817863 -0.0721432 -0.0419987 0.082378 0.052927 0.0485352
children 0.0727563 -0.0349128 0.0330342 -0.0216812 0.0710008 -0.066489 -0.0197128 -0.000623501 -0.0242326 -0.0637273 -0.0043212 -0.00209726 -0.0628903 -0.000446587 -0.0629157 0.0483444 0.0178906 0.0708739 0.0587268 0.0428151 0.0488313 -0.0539447 0.0715932 0.0875283 0.0708966 0.0331265 -0.0145884 -0.0752162 -0.0162482 -0.0822174 0.0164951 0.0696242 0.0654692 0.0410061 -0.0172841 -0.092928 -0.0706783 -0.0565352 -0.0291572 -0.0684597 0.0611454 -0.0817288 -0.00823627 0.0123318 0.0601161 -0.05154 0.00159027 -0.0851236 -0.0135342 -0.0751869 0.0600967 -0.0574154 0.0511534 -0.0611096 -0.083358 -0.0344724 -0.0309314 0.0450895 -0.0112862 -0.0231188 -0.0572385 0.0119876 0.0436569 -0.0646141 -0.024272 -0.0523274 0.0512471 0.0786803 0.0158354 -0.0831946 0.0543985 -0.0648446 -0.0570754 0.00520904 -0.0226081 -0.0334746 0.0569461 0.0331228 0.0838282 0.0259494 -0.0202052 -0.0171274 -0.0392844 -0.0037358 0.0943447 0.0221725 -0.0707355 0.0491993 0.0627655 -0.0250154 0.0411403 0.0923626 0.0760123 -0.0372525 -0.0750698 0.0218916 -0.0302181 -0.0731953 -0.0166575 0.0855807
your 0.023702 -0.0121956 -0.0252862 -0.0111849 0.0744934 0.0531813 -0.0634814 -0.081008 0.0300778 -0.0217888 0.00410046 -0.0466648 0.00290342 -0.0247233 0.0496443 0.0601501 0.0272702 0.00902379 -0.0486889 0.0726217 -0.0605459 -0.0260216 -0.0441114 0.0174981 0.0167113 -0.0136909 0.0851992 -0.0311744 0.0319312 -0.0725518 0.0692766 -0.0724786 -0.0700808 -0.0764312 0.0313162 0.0170488 -0.0820861 0.0454855 0.0488188 -0.0292035 0.0216953 -0.036543 0.0944304 0.0226874 0.0721058 0.0941679 -0.0815131 0.0707525 0.0697555 0.00955031 -0.0770774 0.0259792 0.0571954 -0.00375626 0.0918527 0.0869538 0.0312614 -0.0732365 -0.0822297 -0.045792 0.0850913 -0.0519557 0.0458727 -0.0693766 0.0283966 -0.0292534 -0.070657 0.096268 -0.0266008 -0.0457392 0.0591282 0.05595 -0.0694201 0.0870362 -0.0779088 0.048489 -0.0267232 0.0742026 -0.066785 0.0436926 -0.0734437 -0.0129439 0.0698081 0.0487858 -0.0481004 0.000790018 -0.0191585 0.00859159 0.0753566 -0.0624089 0.0423169 0.00512466 0.0460687 -0.0805691 -0.0513419 0.0681439 -0.0419933 0.0198064 -0.0784548 0.0635916
loveliest 0.0892215 0.0441231 0.0901713 -0.0871353 0.0531378 -0.00557499 -0.0750097 0.00769818 0.0645896 0.040874 0.0641991 0.0796867 0.029371 -0.0620619 0.0220756 -0.06978 -0.0105552 0.032195 0.0469199 -0.0543292 -0.0594187 0.0226511 -0.0865918 0.00704278 -0.0223287 0.0725929 0.0662791 -0.024229 -0.000702868 -0.0129937 0.0424221 0.031155 -0.0145785 0.0484119 0.0151188 0.0423985 2.65632e-05 0.0836807 -0.0423175 -0.0603627 -0.0112215 0.0409336 -0.0626308 -0.0136768 0.0747878 0.0587027 -0.0610784 -0.0463178 -0.0350171 -0.0381863 0.0265783 -0.0175916 0.0745558 -0.0279512 -0.0530737 0.0446568 -0.00165895 0.0572251 -0.0568244 -0.0212992 0.0366484 0.0804427 0.0864223 0.0630517 0.0261941 -0.0792812 -0.00482678 0.0350261 -0.0794251 0.00558241 0.0644053 0.0471284 0.0736007 -0.0497379 -0.0469517 -0.0646719 0.0795041 -0.0668917 -0.0547973 0.0718006 0.0372268 0.0846929 0.0232696 -0.0417323 -0.066399 0.0869943 -0.0606769 0.0769267 0.0635374 -0.0101769 -0.0575227 0.00282791 0.0830442 -0.0447497 0.0611809 0.0875716 -0.0862272 0.0221026 0.00376618 0.0594554
got -0.045844 -0.00894565 -0.0346167 0.0589239 -0.0398546 0.0598723 0.0745176 0.0609953 -0.0454008 0.0997467 0.0192665 0.0502922 0.0322822 -0.0168963 0.0993227 0.0489918 -0.0868671 0.0854709 0.0354488 0.0308073 -0.0750463 0.0714984 -0.0417699 -0.0539824 -0.0612764 -0.032158 -0.017178 -0.0469789 -0.0349642 -0.0710767 -0.0944586 -0.0372347 0.0384188 -0.0407921 0.0200109 -0.0589138 -0.0906479 -0.0200943 -0.0476473 -0.0936528 -0.0537833 -0.0690385 0.00279638 -0.0180105 0.0947799 0.100641 0.0726076 -0.0813117 -0.0807601 -0.0281566 0.004466 0.0872623 -0.0712572 0.0586278 0.0383466 -0.0119783 -0.0531736 -0.0370921 -0.0605483 0.0630304 0.0521104 0.0505989 -0.0668324 -0.0522204 0.0879544 0.0579605 -0.100495 0.077525 -0.0964548 0.00658744 0.0116526 -0.0716676 0.0686763 0.0594049 -0.085278 0.0572444 -0.0611415 0.0167851 0.0561331 0.0221264 0.0555403 -0.0587355 -0.025212 -0.0475983 -0.0378072 0.0138134 -0.00844246 -0.00896072 0.0683286 0.067705 0.000636226 0.0800089 0.0687177 -0.0451148 0.00406185 0.00163995 0.0384715 0.0081284 0.0215422 -0.047535
me -0.0729002 0.054415 0.0124256 -0.0145671 -0.074065 -0.0446847 0.0366727 0.0507871 0.0258457 -0.0543505 0.0870079 -0.0900745 -0.0194649 -0.0535112 -0.0405044 0.0189372 0.0162318 -0.0760354 -0.0468993 -0.033182 -0.0014048 0.0321914 0.0795294 -0.0355034 -0.000464206 -0.0350168 -0.0170251 -0.0294809 0.0507061 -0.0319535 0.0796249 0.054701 -0.0513822 -0.0510368 -0.0867311 0.0527554 0.0124154 -0.0381678 0.0216888 0.0259678 0.008482 -0.0375476 -0.0267614 -0.0347185 0.0588965 -0.0514124 -0.0674096 -0.0645686 -0.0408223 -0.076692 -0.0167395 -0.0362419 -0.00866718 -0.0201825 0.0790505 -0.0363054 -0.0810396 -0.0917714 -0.0209355 0.102625 0.0581148 0.0642575 -0.0871311 -0.0687524 0.0407744 0.0163195 0.0117398 0.0250006 0.0498035 -0.0934629 0.0394731 -0.0682691 -0.0187386 -0.0477445 0.00663639 -0.0806383 0.0410587 -0.0637456 0.0647715 -0.014518 -0.0656231 0.0887816 -0.0773236 0.0725789 -0.0461231 0.0227157 0.0814689 -0.0481323 0.00258178 -0.0251082 0.0561706 -0.0713074 0.0875549 -0.0965602 0.0475441 0.0446039 -0.0859653 -0.0881784 -0.0384073 -0.0425185
asking -0.00699462 -0.0361698 0.0259281 0.0449 0.0652031 -0.0476663 0.0359302 -0.0363164 0.0399857 -0.0126801 0.0141519 0.0570844 -0.0819364 -0.0301661 -0.0231948 0.0734692 -0.0780583 -0.0921453 0.0731612 0.0833047 -0.0692037 0.0278619 0.0110641 -0.0510252 0.0773481 -0.0851424 0.0501393 -0.0185699 0.0502683 -0.0537931 0.0460141 -0.0655718 -0.0805143 -0.0318739 -0.0170785 -0.0544269 -0.0853998 -0.0423469 0.0242502 -0.0628405 -0.0294338 0.0708491 0.0394652 -0.0476137 0.0948745 0.0851399 0.0713418 -0.0817189 -0.0795286 0.0535631 -0.0824666 -0.00373519 -0.0611527 -0.041981 0.052528 -0.0971235 0.0784553 -0.0882693 -0.0878848 -0.0769994 0.0735525 0.0306453 -0.0278215 0.0308689 0.00665791 -0.0380607 0.0066762 0.0851512 -0.065839 0.0641945 -0.0967912 0.0629575 -0.0308625 0.0490325 0.0741042 -0.0634503 0.0449699 0.0010849 0.043316 -0.00296796 -0.057643 0.0494899 -0.0728283 -0.024808 -0.0879392 0.0180095 -0.0100763 0.0257248 -0.0272024 -0.0668636 -0.0190801 -0.0854337 -0.0536557 0.0115803 -0.0652726 0.0151707 0.0780367 -0.0842683 0.0363281 -0.0476546
histories 0.078132 0.0547144 -0.0703075 -0.075619 -0.024672 0.0717953 -0.0485608 0.00151017 -0.00141528 0.0628359 0.056746 -0.068665 -0.0631852 -0.00413725 -0.0828758 0.0219463 0.0275344 0.0306871 -0.00832427 -0.0773657 0.0172311 0.0814737 0.0182835 -0.0122777 0.0695298 0.00457033 -0.0160137 -0.0265382 -0.0891023 0.096912 -0.0144102 -0.0706551 -0.0143886 0.00415524 -0.0390219 0.093957 -0.0870944 0.0392786 0.0286376 -0.0609542 0.0938776 -0.0146576 0.0600803 -0.0555291 0.0362661 -0.0525934 -0.0157196 -0.0575789 -0.0793722 0.0334393 0.0348745 -0.0457346 0.01766 -0.0440452 0.0656953 -0.00914927 -0.0173314 0.0913065 -0.000664023 0.0355067 0.0626543 -0.0222939 0.0492269 0.0347867 -0.0662796 -0.00343754 0.0602178 -0.0478196 0.073467 0.0215247 -0.086264 0.0505453 0.0281473 -0.0909141 0.0583504 0.0170772 0.0352713 0.0485269 -0.0808529 -0.0956517 0.0625431 -0.00932181 -0.00997063 -0.08382 -0.0244856 0.0622331 0.0655598 0.00576004 0.0882221 -0.0494977 -0.0102211 -0.0375449 0.0936295 -0.0856364 0.0640124 -0.030775 -0.0535319 -0.0127886 0.088406 0.0047395
would 0.075325 -0.0757795 -0.08393 -0.0994799 -0.0349939 0.0335779 -0.104601 -0.0428483 0.000995881 0.0454638 0.0110115 0.0415007 -0.0482986 -0.0210892 0.0707249 0.0295656 -0.0768672 -0.0857007 -0.0598875 0.0402246 -0.0172514 -0.0516162 -0.0620201 -0.0630185 0.067278 0.0633787 0.0321268 -0.0599327 -0.0911754 0.0735974 -0.0416429 -0.0826908 -0.0370926 0.0156204 0.0855011 0.00817744 0.0698186 0.0309415 0.00785967 0.0415847 0.071156 -0.00122574 0.0443584 0.0840768 -0.0224516 0.0232975 0.00441474 0.00579141 -0.0206551 -0.0465996 0.0227429 0.0524438 0.0583277 -0.0940825 -0.101381 0.0129601 0.063363 0.000732343 0.00821248 -0.037469 0.0905989 0.00498978 -0.0511327 0.0347218 -0.0410701 -0.0667201 -0.101188 0.0736142 0.0809226 0.0528955 -0.0408831 -0.0709066 0.0651067 -0.0734017 0.0156875 0.0342483 -0.0179844 -0.00397485 -0.00936344 -0.0463779 0.0184724 -0.0542407 0.0233022 -0.0877861 0.05336 0.0792234 -0.0757766 -0.00672838 -0.0332109 0.0287874 -0.0706556 -0.0797687 -0.0124362 0.0779815 0.0709593 -0.00315053 -0.0313692 0.00266219 0.036589 -0.0759565
